500 400
'暴漲' 0.0019555013 0.0013207762 -0.0012329253 0.00025426687 -0.0021916078 0.00021460917 -0.00079562987 0.00057766755 -9.631899e-05 -0.0007937494 0.0022915183 -0.0010704624 -0.0024966912 -0.0009097932 -0.00020194835 -0.0002445467 0.00028796963 -0.0002033774 0.0007285417 0.0009848651 -0.0016022295 -0.0014092007 0.0003949217 -0.001122099 -0.001676315 -0.0001587733 -0.0024731816 0.0016982086 -0.0016496363 0.0010959547 0.00019634403 -0.0016222519 2.8342356e-05 -0.0016477196 0.0020850888 8.4708976e-05 0.0013822028 0.0023463103 -0.0020146007 8.961175e-06 -0.0012962908 0.0022080112 -0.00071347115 -0.0015821026 0.0004519661 -0.0001904216 3.317947e-05 -0.00073082105 0.0012514747 -0.0009819057 -0.0006972601 -0.0024405508 0.0016576546 0.0019874666 -0.0022505946 -0.00076005736 0.0024779427 -0.0012657542 -0.00030257175 -0.0016678012 -0.0015486075 -0.0011810017 -0.0009705617 -0.0011159468 -0.0010212921 -0.0019379413 0.0014881149 -0.00048591534 -3.8644466e-05 -0.00013661217 -0.002213242 -0.0022249408 0.001871773 -0.00025735243 -0.00061688223 0.000405443 -0.00033284354 -0.0015023004 -0.0009825622 -0.0014637554 0.00038001026 -0.0012611417 -0.0017462355 -0.00025053785 0.00013785265 0.0013173592 0.0011897859 0.0004438822 -0.001622497 -0.0017578551 0.0004325319 0.00034514515 -0.00035400598 0.0011789949 -0.0021620449 5.2464373e-05 -0.001761456 -0.00015343436 0.0023432493 0.0016279347 -8.623447e-05 -0.000655947 -0.0018506409 0.0012071267 -0.0022433398 0.0022170548 -6.3192834e-05 0.0003423036 -0.0009335452 0.002299747 -0.0015902764 -0.0006509165 -0.002326753 0.0011403261 0.002081519 5.8562375e-05 -0.0013260128 -0.0014112967 -0.00013444225 -0.0008925694 8.807398e-05 -0.0007166179 0.00030222035 0.0006694053 -0.00032743523 0.00038892825 -2.5758232e-05 -0.0016988249 -0.0022167752 -0.0023731776 0.00014794497 0.0010870233 -0.000816053 -0.0018360716 -0.0023147967 -0.0015658344 0.0011610384 -0.0004167869 0.0021470077 0.0001587851 0.002296395 -0.0008580785 -0.0014742471 -0.0017209743 -0.0010933824 0.0006302649 0.0016330251 0.0008269955 0.0011027984 -0.001529966 -0.00094697665 -0.0004659604 -0.00089470966 -0.002455016 0.00046483128 -0.002064631 -0.00091989123 -0.0018191304 0.000769496 -0.00077323895 -0.001494757 0.00023313198 -0.001698934 0.001327977 -0.0011477353 0.002490164 0.0016226936 0.0013043663 0.001494525 -5.565828e-05 -0.0017965236 -0.00023251958 0.0016765778 0.0023645817 0.0016185893 -0.0010800986 -0.00075393345 0.0019438711 0.0021130003 0.0011300155 0.0002358645 -0.0007062164 -0.0013278152 -0.0013992079 0.0021606446 0.0023317193 0.00040226005 -0.00074321305 0.0003748925 0.0010047631 0.0004601821 0.00033273568 -0.0022922559 -0.0019013656 -0.0020568448 -0.0005348171 0.0019419088 -0.0020227495 -0.0009656744 0.001946992 0.0003252115 0.0019736004 0.0017516129 0.0022807657 0.0020375268 0.0010250612 0.0024226608 -0.0019252888 0.00013259966 0.0010057195 0.00068252784 -0.00015034965 0.0010523439 -0.0018748544 0.0009687859 -0.0021295503 0.00078506797 -0.0014487273 0.001151877 -0.0023675952 -0.0022519457 0.0021541829 0.0015077681 -0.0009590656 0.0005468785 -0.00088605937 -0.0024633722 -0.0019718318 -0.00012737466 0.001182993 -0.00018443799 0.00078453985 -0.0018135976 -0.0015319875 -0.001228876 -0.0021670868 0.0023731336 -0.0014881205 -0.0012385848 0.001985869 -0.000103844235 -0.0017498774 -0.0016376964 -0.0006382879 -0.00094611367 0.0004465422 0.0007250941 0.0007060569 -0.0013591142 -0.00037281372 0.00010925501 0.0013914244 -0.00050702365 -0.0011948204 -0.0021878232 0.0020579025 0.0012809605 -0.0009121086 0.00016053524 -0.0021032575 -0.0006431226 -0.00027759187 0.00010031411 0.0003981311 0.0004907649 0.001376547 -0.0015156573 -0.0021098044 -0.002263229 -0.00031031697 0.0013359382 -0.00019547614 -0.00029540152 -0.0023975065 0.00034385326 -0.0009626486 9.052833e-05 0.00019846295 0.00055637996 0.0011388323 0.0012609927 -0.0021810117 0.0017311659 0.0013281727 -0.0022687018 -0.0019753044 0.0010562614 0.0021241992 -4.8515667e-05 -6.590495e-06 0.0022340084 -0.00033303065 0.0016608809 0.0006664009 0.0024810869 0.0021714177 -0.00020494832 0.00061943603 -0.0011044549 0.002201271 0.0023187331 0.0024629405 -0.0005127976 -0.0014853694 -0.0018101502 -0.0019274772 -0.0016669902 -0.0007166955 -0.000410907 -0.0012997964 -0.0011824984 0.00020437481 -0.0009806665 -0.0006212294 -0.001801708 -0.001541155 0.0017176432 -0.00044920787 -0.00078308093 0.0016797768 0.0010317336 -0.0018825877 0.0018005294 -0.00068743626 -0.0014227089 0.001600249 -0.0015953941 0.0013950549 -0.00036919012 -0.000483219 0.0010381464 -0.00047884235 -0.001891639 -0.0011207056 0.0009911726 -0.0013870606 -0.0006349528 0.00089649117 0.0015708385 0.0015742813 -0.0018170942 0.00076018064 -0.0017028934 -0.0012038719 -0.0018005103 -0.0010087895 0.0010849767 0.0014871192 -0.0005483248 0.0023676422 0.00097489683 -0.0012579162 0.0009736769 0.0011354425 0.0019478778 0.00035238286 0.0013052678 0.0009162743 0.0015721472 -0.0019457688 -0.0006617291 0.00038532235 -0.0024830366 0.0011899302 -0.0019136585 -0.0016024265 -0.00065629784 -0.00091702177 0.0015290049 -0.002159272 -0.0012655463 -0.00045981654 -0.0006048851 -0.0011739964 -0.0019355088 -2.4263349e-05 0.002294119 0.00087268325 0.0014761481 0.0005397431 0.00083744316 0.0006657022 0.00023284277 -0.00208694 -0.0012771953 0.0024846816 -0.0008047878 0.0013336164 0.0016020604 0.0019303957 -0.0015099053 -0.002469179 -0.0010786316 -0.002004399 -0.0018162795 0.0016659929 0.0023857083 -0.00078305585 -0.0023235288 0.0023195883
'show', 0.0001113285 0.001682741 -0.0014306426 0.002185421 -0.00035572032 -0.0015415967 -0.0011158506 -0.0022250228 0.00034608442 0.001945588 -0.0009293528 -0.0013593243 -0.0011642158 -0.0019732194 0.0022913879 -0.0020892224 -0.0017150828 -0.00046168757 -0.0018962934 0.00076821196 -0.0022581671 -0.0010121241 -2.2051643e-05 0.0017617716 0.0012415061 0.002373051 -0.00036412504 0.0019365918 -0.0013578299 -0.00030609238 0.0021548925 0.001993699 0.0019833692 -5.6164867e-05 0.0017372807 -0.0009224908 -0.0014772656 0.0001324561 0.0018650086 0.0024635005 -0.0021168236 0.0016387589 0.0013823678 0.0002187862 0.0007091635 0.0020514743 0.00029261093 0.0018634304 -0.0006054859 -0.0024433234 0.0013586687 -0.0013283582 -0.0009385996 0.0005142733 -0.0012058597 0.0022143107 0.0013157341 -0.00031572266 0.0010607194 -0.00061319716 -0.0018927986 -0.001421992 0.00084904744 0.00037022677 -0.002105722 -0.0019330729 -0.0011095069 -0.0007969148 0.0024091117 0.00026643154 0.0015563606 0.002448334 -0.0013816347 -0.0021057972 -0.0005942491 -0.0014674676 0.001993229 -0.001279901 -0.001327354 -0.00011694391 -0.00090459676 -0.0016468938 0.0024447585 0.0016319779 0.00018697388 0.0020512075 0.001899785 -0.0017233889 0.002132098 -0.0011747762 -0.0022234684 0.00072231045 0.0012152204 0.0011406709 -0.0012096294 0.00130734 -0.0021409534 0.0015377596 -0.0012383277 -0.0007971981 0.00030282608 -0.00046805368 0.00025754815 0.0009990573 -0.002230162 -0.0019695628 -5.4661516e-05 0.0011762652 0.00036307774 0.002027284 0.00070103304 -7.224202e-05 -0.000857562 -0.0017198776 0.002334887 -0.0014051094 0.00078565493 0.001571284 0.0015470918 0.0017207017 -0.0024171884 0.001257031 -2.1306982e-05 0.0011400968 0.00014772156 0.00014622722 -0.0018230138 0.0009357502 -0.001192382 -0.001268265 -0.0019293511 0.0019888098 0.0015497725 -0.0010362365 -0.002235934 0.001766206 0.0020969366 0.0012134679 -0.0019751505 0.00060453266 0.0023905053 0.0019365009 0.0006838626 -0.0013123129 0.00014677182 0.0012381095 0.0018527898 -0.0018014086 0.0016892907 0.0012889773 0.0024984141 0.0012131056 -0.0007841539 0.0020568878 -0.0011176796 0.00179561 -0.0017490077 -0.0001685589 -0.0021857915 0.0020826142 0.002205155 0.0017714872 0.0005780012 0.0011879434 0.002266173 -0.0018596106 0.0014433718 -0.00047837838 -0.0015400844 -0.0023075778 0.0012318989 0.0012701753 -0.00012133322 -0.0024819293 -0.0006712546 0.0018953199 3.9311395e-05 0.0011791814 -0.0008086738 -0.0016308991 0.00016514199 -0.0019886103 0.0014248012 0.00108095 0.0013117304 0.0022463303 -0.0016632621 0.0019487905 -0.0012132095 0.0024134568 -0.0018643787 -0.0009499184 -8.785246e-05 -0.0022016705 -0.0020996404 0.0013585214 0.0019457764 -0.00094142254 0.0021441034 -0.0006025578 0.0021790713 0.0023971805 -0.00232519 0.0012750548 0.0011976117 0.0007071798 -0.0023417643 0.0024037147 0.0020506466 -0.0017941865 0.002227775 -0.0014656815 -0.002377407 0.0016779874 -0.00067477097 -0.002031203 0.000122543 0.0004316711 0.0008096645 0.00041644677 -0.0015966337 -0.00093763706 -0.0010089537 -0.00122453 -0.0005504747 -0.0006071423 -0.0007482404 0.0013371716 -0.0022632466 -0.00015323191 -0.00037686853 -0.0023037125 -0.0016402382 -0.0019231441 -0.0019202268 0.0018650361 0.0005945524 -0.00041225142 0.0023844382 0.00089289166 0.00011660878 0.0021532988 -0.0016392748 -0.00034216995 0.0023070418 -0.0017386904 -0.0021465532 3.3733344e-05 0.0021776669 0.0021894104 0.0015900743 0.0018298641 -0.0022629735 -0.0012050485 -0.001084348 0.0020935643 -0.0021700552 0.000516854 0.0005211611 0.0019133305 -0.00010272695 0.0021909492 0.0015608142 0.0021949478 -0.0013353656 -0.0017263206 0.0004995619 -0.0023993936 0.0006524989 -0.0005874136 0.0017262856 0.0020220333 0.0014759521 0.000826061 0.00056364713 0.000981904 0.0011568773 -0.0007892754 -0.0009803284 0.00068821176 -0.00042252018 -0.0021197046 -0.0004134174 -0.0005233807 0.0014527317 0.0013626303 -0.0014287954 -0.0013310722 -0.0006102236 0.0015381048 -0.0009968285 0.0003343233 -0.0017224696 0.0001354689 0.00060443016 0.0023872557 -0.0004883357 0.001225419 0.0017199237 0.0021260753 0.0014730628 -0.0010724777 0.0023388288 -0.000711933 0.0013802465 -0.0014708248 -0.0019783701 0.0012249205 -0.0018336177 0.002293208 0.0010706618 0.0011608901 -0.0017118609 -0.00018425602 -0.001313004 -0.00070338073 -0.0015759864 0.001412722 -0.0023469003 0.0021461064 -0.00017046396 0.0015531412 0.000658769 -0.0017885027 -0.0021517337 0.0013480096 -0.0012851633 0.00044848153 -0.0022679395 0.0016169291 0.0005196843 -0.0021531966 0.00077340286 0.00034432305 -0.0006489099 -0.00024980336 -0.002229328 0.0017826376 -0.0021044237 9.6709555e-05 -0.00097522937 0.0012296248 -0.002507576 0.00079067406 0.0009654086 -0.0011871756 -0.0023207683 0.0013175169 0.0011592323 0.00147761 0.0011490117 -0.00108591 -0.00015882627 0.0021867591 -0.0021311939 6.604803e-05 -0.00035912395 0.0009355237 -0.0008438764 0.00046816046 0.00026563232 0.0017274456 0.001382458 -0.0005625884 -0.0013489713 -0.0013605003 -0.0006160259 0.0007226608 0.00089215295 -0.0005441313 0.00043933035 0.0005450661 0.0016739619 0.002113122 0.0001410162 0.0006076543 -0.0012226708 0.00033476917 -0.0002513831 0.0020538964 0.00091340905 0.00028775836 0.0006854103 0.00027529415 0.0016993574 -0.002159113 -0.0010043159 0.0022018396 0.0017266287 0.0017701583 0.0021655143 -0.000109356704 -0.00020419784 0.0021347872 0.0006452503 -0.0016841317 0.000518707 0.0005426673 0.00053551653 0.0021632828
'筍', -0.00033336834 0.0003639572 -0.001481673 -0.0019614203 0.0023840698 0.0023777601 0.00017689505 -0.000868155 -0.0009000913 0.0012603847 -0.00037155 -0.0019529312 0.0002608096 -0.0001503252 -0.0017537891 0.00012353231 -0.0008070846 -0.0022239941 0.0001879254 -0.0021911738 0.00059188064 0.0016432188 -0.0011179353 -0.0023149424 0.0016159994 0.00013938296 -0.00061746617 0.00092661247 -0.0015684033 -0.0013699064 -0.0020419913 0.0013618444 -0.0024438894 -0.0015505442 0.0015678135 0.0016796446 -0.0010158423 0.0020530089 -0.0022352156 -0.0012360414 -0.0013127916 0.0015358881 0.0016025997 0.0021304155 0.00074979884 0.0006180023 -0.00032726966 0.0016963693 -0.0020271265 -0.0006747567 -0.000111849775 -0.0020384134 0.00074274617 -0.001255135 -0.00029468496 -0.0011520189 -0.0021576926 -0.0009637054 0.0014720468 0.0024093003 -0.001827215 -0.00082684105 9.731669e-05 -0.0005730136 -0.0008897272 0.0021889454 0.0009981332 0.0019661111 -0.0013762036 -0.0022524751 0.0006137632 -0.0013323321 0.002422447 -0.0014794994 0.0017725696 -0.0015857002 -0.001855319 0.0010894075 -0.00034611285 -0.00015994803 -0.0013789571 -0.0015293427 0.00020028965 0.0005394176 -4.5562538e-05 -0.0015636061 0.00046416224 -0.0011492484 -0.0015937102 0.0014989064 -0.002223048 0.0017694418 0.0020241865 -0.0024281724 -0.0011686991 0.0022715605 0.0021504988 -0.0022459836 -0.00066934415 -0.0018930078 0.0024833293 0.0017612762 0.0017751179 -0.0017031437 5.907696e-05 -0.0009384413 0.0010205763 -0.00018702782 -0.0015661916 -0.0021238548 -0.0017441841 0.001979814 -0.0018921815 0.00037497588 0.00033294022 -0.0007947962 -0.0012497475 0.0020228452 0.002076137 -0.0004089182 -0.0015973973 -0.00050497893 0.0017234925 0.0016243771 0.0018789867 -0.0022048438 -0.0017860973 0.00045688436 0.0014840596 -0.0009535822 0.0006563113 -0.002346074 -0.0019560126 0.0019209855 0.001623896 0.0006625914 -0.0021858825 -0.0012861451 5.5511144e-05 -0.0022066787 -0.0008881467 -0.00069982867 0.00012681494 -0.0019155109 0.001186753 0.0018929936 -0.0012390886 -0.00028206356 -0.0012767477 0.0019812144 0.002163573 -0.0003191704 -0.00017281745 0.00064082496 -0.0023607044 -0.00077519123 -0.00020462679 -0.00026917618 -0.0022073518 0.0021915683 0.0023220822 -0.002016052 0.0024679375 -0.0012207256 0.0017257584 -0.0017295339 -0.002467369 0.00035002347 2.9640414e-05 0.0020335442 0.0012230744 -0.0001867883 0.000324255 -0.0020501337 0.0014025259 -0.0021739774 -0.0005862619 -0.00058345264 -0.0014909969 0.0010243641 -0.0015599985 -0.0021082107 -0.00039241475 0.00232358 -0.0007495017 0.0021891724 0.001740845 -0.00082623353 0.00083181984 0.0020533656 0.0009892451 0.0017738914 0.0012385835 0.0014315704 -0.0008372537 0.0019754441 0.00085508224 0.0014549687 -0.0004333983 0.00016204156 0.0018519227 -0.00083896465 -0.0021047355 -0.0007487281 0.0005350294 0.00075556326 0.0015111292 0.0012517101 -0.0005354109 0.001479283 0.00094363914 -0.001999691 0.0022855913 0.0016793573 0.0002450876 -0.0014654439 -0.0023152516 -0.0023728576 -0.0024060889 0.0018939328 -0.00072511344 0.001436084 0.0023951607 -0.0022823482 -0.0016374307 0.0013811316 -0.0010627343 -0.0013639595 0.0020020984 0.0015343592 0.0012721922 -0.00089313625 -0.0024931515 0.0013969538 0.0022949355 -0.0011716951 -0.0018839707 0.0022136762 0.0009047317 0.0008565982 -0.00036308842 0.0017263455 -0.0012826462 -0.0020244124 0.0014272674 -0.00018118753 0.0013551523 0.002121399 -0.00022225955 -0.002436166 0.0018758714 0.0008930407 0.001941251 0.0012540128 -0.0022686776 -0.00067992235 0.0016354512 0.0016641985 0.00042262132 -0.0006341579 -0.00089210086 -0.0001020045 0.0008747437 0.00040174884 0.00012818722 -0.00048394396 -0.0024025154 0.0012444688 0.001918152 0.0024757404 0.0017305638 7.178485e-05 0.001776028 0.0020827367 -0.001591388 -0.001973897 -0.00027245143 0.0005181821 0.0010674788 -0.0012777417 0.0014985531 0.0016744231 -0.00064005924 -0.0022934144 1.546639e-05 -0.00010612974 0.002003874 -0.000995586 -0.0001254506 0.0008692691 -0.00055726257 0.0006725788 0.0010291046 0.0010789424 -0.0017152439 -0.0005250184 -0.0011891762 0.0010891607 0.0010254387 -0.000889386 -0.0023844978 0.0015602672 -0.0018577949 0.0019323118 0.0013406959 -0.00070725643 -0.0007479879 0.00022717056 -0.0021128543 -0.0020534047 -0.0001036799 0.0013107894 0.0009822452 -0.0007091386 0.00087094057 -0.0008381111 -0.0020572394 0.0016774874 0.0014698202 -0.0016706752 0.0018621202 -0.00025232387 -0.0011866916 -0.0024339582 -0.0009824745 -0.0009045362 0.00014650462 0.0011928927 -0.00051652984 0.0016699954 -0.0020067089 -0.00024355207 0.0017890523 -0.0015770345 0.0012839566 -0.00050147757 0.00057467096 -0.00011130377 0.0012920869 0.00091720186 0.00034277418 -0.0022916459 0.0011838534 0.0012176322 0.0023930517 0.00082069024 0.0014620707 -0.001484081 -0.0007497738 -0.002293217 0.0013605898 -0.00020857212 -0.0008042866 -0.0010711941 -0.0018043462 -0.0023102406 0.00077159854 0.00018418797 -0.0016786238 -0.00045565207 0.002319351 0.0017962824 -0.0005878723 -0.00012467284 -0.0005882119 -0.00095219613 0.00074820383 -0.0007399933 0.0015694402 0.0011268994 -0.0010258191 0.0024970407 -0.0014023421 0.0024739665 -0.00065315806 -0.000102845646 -0.0011451874 -0.0011439329 0.001038526 0.0018111027 -0.001180439 0.0020637878 0.0022400485 0.00045957076 0.0004930352 0.0013663989 -0.00226477 0.0009250991 0.00090505014 -0.0014747526 0.0014959823 0.00088983297 -0.0006474908 -0.0011931021 -0.0019426206 0.00072589295 -0.00040121534 0.0021168534 0.00093903445 -0.002050905
'引發', -0.00036730207 -0.00063563406 0.0017897837 0.00076258474 -0.00043964133 0.0014175057 0.002338042 0.0010606828 -0.00046495887 -6.4353815e-05 -0.001769271 0.0017970795 -0.0020893095 0.0006751254 -2.5016709e-05 0.0011694517 -0.0023722835 0.00036614836 -0.0013901759 -0.0005697556 -0.00062705553 -0.00095847395 0.0024042383 0.0010948896 0.0021027927 -0.0021311105 0.0023687638 -0.0021241081 0.0006429556 0.0020402651 0.002176911 0.00092412176 -0.0016504728 0.0020635023 0.0016737205 0.0007050052 0.0020388535 0.0003068981 -0.0013325758 -0.0018739596 0.0016133379 0.0024755783 0.0018064115 -0.0015345147 -0.0019567942 -0.0021688375 -0.0006573146 0.0023859888 0.0007944979 0.0002775944 0.0019102193 0.0014281587 -0.0016538539 0.00028350655 0.0009996584 -0.00031107914 -0.0003560246 0.0005738164 0.0017915125 -0.0006192817 -0.00144269 0.0017303503 0.0024709671 -0.0010960542 -0.0021598733 -0.0004930105 0.0008924884 0.0009918737 -0.00035402246 -0.0016351441 -0.0013501093 -0.0013593284 -0.0017684686 0.0023728856 0.0017052328 -0.0006283184 -0.0024411425 -0.002036822 -0.0003445339 0.0023350674 0.0020832845 -0.0011233562 -0.0018076667 -0.0012562475 -0.0018758142 -0.0022280514 0.00044524058 0.001698758 0.0017055453 0.002251881 0.00046654456 0.0010423752 -0.0018236627 -0.0016182238 -0.0011561807 7.666991e-05 0.00015513506 -0.0004372786 -0.00070649234 0.0001265441 -0.00014100356 -0.0010075577 -0.00088521774 -0.002487806 0.002213911 -0.0017135649 0.00066462316 0.0017206583 -5.7264868e-05 0.00016417603 -0.0016476099 -0.0011047741 -0.0006171497 0.0007965869 0.0008274376 0.0016863677 -0.0014045518 0.0016798888 -0.0023865171 0.0012801462 0.0008633106 -7.750146e-05 -0.002123101 -0.0020120956 4.6141275e-05 0.0010976546 9.030951e-05 0.00037082666 -0.0008512724 0.0020504135 0.0017776956 -0.00038794553 -0.00077291345 0.0023297362 -0.0012646826 -0.0008777748 -0.001326796 -0.001362937 -0.0015426732 0.00040771833 -0.0020352392 0.002259265 0.0014366637 0.001138742 -0.002293446 -0.00017176358 -0.0020521008 -0.0016735438 0.0021511186 3.3795764e-05 -0.0016337326 -0.0010724042 -0.001663838 0.0006617625 -0.0017516742 0.00093872607 -0.002499988 0.0015732732 0.00083289004 0.0008803167 0.00057484605 0.0015040565 -0.0010564018 -0.0021369315 -0.0015288157 0.0013918768 0.00035867534 0.0024752687 0.00031826328 0.001065554 -0.00042951456 -0.0008858442 -0.0019833054 -0.0017059391 -0.0020812869 -0.0014755116 0.0024835872 -0.0012173885 0.00080085924 -0.00019844988 -0.0024364777 0.0014760466 0.0014413053 0.0010354093 -0.0020218377 0.0016928238 0.000654598 -0.0008484588 -0.00105146 -0.0013905979 0.0021460222 -0.00039671807 0.0002693624 0.0016379276 0.0021745032 -0.001026008 0.00042369158 0.0007673993 0.0022481587 0.00044414576 0.00015814048 0.00056414807 0.0023995545 0.0003347633 0.0005090127 -0.00035307926 -0.0010821407 0.0008321792 -0.00012906696 -0.00077217654 -0.0014331853 0.00017512975 -0.0012795525 -0.00015774347 0.0018731328 0.001955404 0.0019883618 -0.0012984183 0.0024115609 -0.00037147317 0.0006431826 -0.00035256564 -0.0005557513 0.0016340024 0.0012300047 0.0019494143 -0.0009611791 -0.0009366406 -0.0009969478 0.00059078104 -0.0012629962 -0.0010671442 -0.001132004 -0.0018112443 -0.002185654 -0.0013719663 -0.00060108944 0.00058773346 -0.002410936 -0.0020127736 0.0012513703 0.00074407953 -0.0020145765 -0.0018840937 0.0005900537 -0.0013939922 -0.000107129694 -0.0012925905 0.0013463971 0.0008814679 -0.0021887997 -0.0010164143 0.0010416012 -2.6686943e-05 0.0005821264 -0.00050356507 -0.00082881947 -0.002354807 0.0024845134 0.0010893863 -0.0002225566 0.0006454427 -0.001372949 0.0006539167 -0.0005406444 0.0023457892 -0.0016245052 -0.0013297899 0.0013408309 0.002182158 0.00041413627 0.0020131269 -0.00072101055 0.0022340144 0.00024452744 0.0006214752 0.001075498 0.0021977543 0.0005945737 -0.0012344605 0.0022251937 0.0020606238 0.00047670442 0.0013307658 -0.0023988073 -0.00060584425 0.0008385982 0.0019311579 -6.514822e-05 -0.0022712103 0.0023522153 0.0013346177 0.0020044511 0.0016354107 0.0012682641 -0.0013382017 -0.0020532452 0.0008410805 0.0007830331 0.0006954594 -0.0023250154 -0.0023425126 0.002334652 0.0005497135 -0.0008530122 0.0017041139 0.00088912185 -0.0011143752 0.00095293956 0.0002365028 0.002324361 -0.001012656 0.0021936381 0.0008163864 -0.0014693895 0.0024618972 7.3179667e-06 0.0011287109 -0.0014473653 -0.00047371758 0.0023181438 -0.0011391555 -0.0021396338 0.0022896444 -0.0019176026 -0.0013172458 0.0014333834 -0.00020572795 0.0015054257 -0.0023102674 -0.0005647387 -0.001009725 0.0015788258 0.0018776178 -0.00013637374 0.0007954494 0.00051161734 0.00014775872 -4.5625835e-05 -0.0009912004 0.0002509282 -0.00031569155 -0.00011723886 -0.00053490285 0.0007719738 -0.0014479569 0.0013162094 -0.0023996253 0.000862883 -0.00010633801 0.0021185374 -0.0006494816 -0.0024649424 -0.0010787785 -0.00046535823 0.000695245 -0.0010203805 -0.0024979191 0.00064109836 0.001397906 0.001472019 -0.0025058184 0.002444494 -0.002451292 -0.0020570073 0.0020135776 -0.001380306 -0.0007693881 -0.00217438 0.0019558494 0.0016165152 -0.0011685673 -0.0010434749 0.0018168091 0.0006505156 -0.0017875433 0.0019535895 0.0016744363 -0.0008204977 0.0009772393 0.0014339299 0.0012364992 -0.0014653711 -0.001577209 -0.00080849853 0.0022210164 -0.0008146144 0.0007031473 0.00040083684 0.0014757632 0.0013256334 5.8633526e-05 0.0012663552 0.0017622684 0.0010015719 -0.0010288582 -0.0010844617 0.0010472919 0.002347269 0.0023410835
'鍵盤', 0.00028411314 -0.00029351615 -7.691584e-05 0.0015038672 0.0018633067 0.0005701648 -0.0002812857 -0.0015391221 0.0013990222 -0.0016157763 -0.0005697049 -0.0009952663 -0.0022975518 0.0020778186 0.00026657232 0.0007729402 0.0011210913 -6.0869475e-05 -0.00012191347 -0.000929741 -0.0021333084 0.002322131 0.0018414849 0.0006442453 -0.0023360287 -0.0017706355 0.0005150488 0.0008296766 0.0010286366 0.00053492084 -0.0020339466 0.000882017 -0.00028600442 0.00038484283 0.001055261 -0.0005849697 0.00092271785 0.00061429595 0.0012470096 0.0013990125 0.0016635413 -0.0024980793 -0.0012966581 0.00041652741 -0.0023567856 9.552577e-05 -0.0020885535 0.0015747867 -0.0004321906 -0.0024386118 -0.0019750323 -0.0015745161 0.0023134672 -0.0007252424 -0.0015344215 -0.0017743803 -0.0016456231 0.00019479822 0.0023114316 -0.0016751355 0.0004207594 -0.0016778491 0.0006786673 -0.00074407156 0.0005266019 0.0020886022 0.001308271 -0.00066670525 -0.0017884254 0.0009148676 -0.00019481278 -0.0009778177 -0.0022197193 -0.0011185815 -0.00010452973 0.0018589024 -0.0015028998 0.0018730357 0.0022424131 -0.0014160743 0.0017372136 0.0023049943 0.0016796859 -0.001033775 -0.0016963035 -0.0006054493 0.0008057455 -0.0012368272 0.0015925425 0.00095006253 0.0003957585 0.0010531517 0.0019346888 -0.0024361042 -0.0012989567 -0.0021272223 0.0018467424 -0.0018445412 0.00040958816 -0.001623117 0.0013203055 0.0014133011 -0.00071416254 0.0003247561 0.00192094 -0.0015721597 0.0024001754 0.00011648641 0.0010030351 0.00012539724 -0.0017425437 -0.0005884406 -0.0024252667 0.002326789 0.00030020982 0.0006963159 0.0023546414 0.0016141655 0.0011922483 -0.002266454 0.0020933473 -0.0015698031 -0.00083108223 0.0014140186 -0.0014739712 -0.0016823781 -0.0008346225 0.00017534605 -0.0005490317 0.0006905771 0.002054322 4.4933746e-05 0.0008860989 0.00054691377 0.00011310474 -0.0022529708 0.0012648236 7.441623e-05 0.0016949644 0.0017436475 -0.0009376546 0.0022371972 -0.0015972462 -0.00090774003 0.0009595591 0.0024961887 -0.0006769157 0.0018384253 0.0008260462 0.0023606527 -0.0009599433 0.0021220727 -0.0020301514 0.0012687624 0.0011150902 0.00083777966 0.0019202877 0.0004902869 -0.0005891038 0.0020343305 0.0021042044 0.00031385658 0.00079295353 0.00014855832 -0.00070568605 -0.0022040498 0.0021383583 7.407055e-05 -0.0018385522 -0.0009130377 0.00034322802 -0.0009014493 -0.000949157 -0.0018102038 0.0017652353 0.0020982428 -0.000110545516 0.0019189304 0.0012830271 -0.002228945 -9.765152e-05 -0.0005124587 -0.001959038 -0.0013346465 0.00020774326 -0.000853078 0.00246317 -0.0018281596 0.0017440148 0.0015093904 0.00024832846 -0.0003924829 -0.00048694457 -0.0015744261 0.0010790812 0.0022504707 0.0019060404 -0.0012582984 0.0015584216 0.0003693035 0.00018508213 -0.0017409018 0.00059311534 0.0019783978 0.0018422867 0.00038860863 7.8556135e-05 -0.0018270168 -0.0014278087 -0.0023111938 0.0009594916 0.0024760712 -0.0019372479 -0.00198089 0.0009822879 -0.0013596193 -0.0023722306 -0.00043261275 -0.0016408707 -0.00034154285 0.0009343781 0.0019315387 0.0006755362 0.001739315 -0.0005161542 0.0006280027 -0.0009755136 0.00052152114 -0.0015741871 0.00120166 0.0006570173 0.00067514816 0.0005469424 0.002193384 0.0013624412 -0.00094986963 0.00097198883 0.0018279213 0.00068908394 -0.0009857343 -0.00014918341 0.0018614007 0.0010381207 -0.0018556747 -0.0019350081 -0.00084773626 0.0017201668 -0.0016329013 0.0007113252 0.0013791551 -1.9705025e-05 -0.0015323487 -0.001471566 0.0014907331 -0.0007170956 0.0016182879 -0.00075905543 -0.00083390536 0.0005036209 -0.00058141066 0.0016406719 -0.0020367221 -0.00089151075 0.0018194785 -0.0012634823 -0.0009694414 -7.0461945e-05 0.002141841 0.0020184098 -0.00047033952 0.00063043146 -2.2765955e-05 -0.001447375 0.001248248 -0.0005191312 0.0019148579 -0.0014075607 -0.002156209 0.0015025364 0.0024706402 -0.00047613576 7.1399125e-05 -0.0013964972 -0.0011791094 -0.0010970564 -0.0019642913 -0.0022173421 0.0015295382 -0.0014914095 -0.00014856385 0.0009968622 4.4058874e-05 0.0007807188 0.0018446501 0.00024065693 0.00041575983 -0.0012164911 0.00017332322 -0.00077440817 -0.0021267917 0.0018904477 0.00021587743 0.0018051023 -0.00028570753 0.0018737776 -0.0004711683 -0.0021222648 0.001525666 -0.001445668 -0.00036619854 -0.0014148852 -0.0011900611 -0.00018712452 -0.0023486728 -0.0015721342 0.00020034213 -0.0011529794 0.002102071 -0.0009727204 0.0024325128 -0.0016644322 0.00080767466 -0.0012437274 -0.0017551522 -0.00062815356 -3.2034077e-05 0.0015439382 0.0015092085 0.00091517356 -0.0007001334 0.00069704396 -0.0009250736 0.0008894752 0.0023234054 0.0014713485 0.0016663261 0.0002947725 0.00173413 0.0018918562 0.0023123727 -0.0007350353 0.0007341392 -0.0006266753 -0.0015722445 -0.00023827874 -0.00038529432 0.00021401196 0.0012047921 0.002089429 0.0015787083 -0.00017380505 3.648937e-05 -0.0010591295 0.0017913773 -0.00097526034 0.0009688034 -0.0006376641 0.0018818245 -0.0015559206 0.0023408807 0.0023670318 -0.00062490493 -0.0022731845 0.0015719888 -0.002180751 -0.0014062341 -0.002254743 0.001356327 -0.0016712395 -0.0015273715 0.00070230296 -0.002444848 0.0008277966 0.0005849324 0.0006998752 -0.00016604815 -0.0024152123 -0.00021551058 0.002244472 0.00038667012 -0.0014734931 -0.0024576366 -0.0019383779 -0.00046736293 0.002132736 0.0010569133 -0.0005833339 0.0018664036 0.00015446346 -0.0020280252 -0.0010842525 0.0014562365 -0.002329787 -0.0023729855 -0.0019944354 -0.0015597906 0.0016717303 -0.0014094507 0.0013187989 -0.00074410776
'黃豆', 0.00011372609 0.0011303466 -0.0024045373 -0.0011671233 -0.001275592 -0.00045245118 -0.0018787001 -0.00028823465 0.0014383835 0.00022257376 0.0007879985 -0.00039102088 0.0020472123 -0.00083033217 0.00010726603 0.0012194145 0.0018436911 0.0011048747 0.0013110214 0.0007943557 0.0023051396 0.0016617846 0.00020145337 -0.00043499662 -0.0024270967 -0.0023079675 -0.0002758749 -0.0013636095 -0.002473702 0.0015881921 0.000393528 0.00019325872 -0.0024726794 -0.0009451488 0.0018111392 -0.0011737599 0.0014734176 -0.00037459587 -0.0007035858 0.001254244 -0.0010065403 0.002440595 8.738741e-06 0.00022547961 -0.0004904234 -0.0024428316 0.00090603274 -0.0013895732 0.0012191157 0.0017987525 0.00082650356 0.00037039095 -0.0014603558 -0.000235777 0.00055920833 0.00019384024 -0.002184859 0.0020240338 -0.0002559294 -0.0013187514 -0.0008019148 -0.00061073684 -0.00046138882 -0.0020966916 -0.0013214787 0.0012384955 -0.0014890715 0.00025925116 0.001072803 -0.0011716043 -0.0005540526 -0.0023957011 0.0011291471 -0.0002059284 -0.001915986 -0.001294622 0.0023348634 0.0006817343 0.0007078926 0.0024419068 0.00037707973 0.0020533155 0.0007094731 0.000641933 0.0018204568 -0.0017652736 0.00038715577 0.0024475297 -0.0015665893 0.0024599195 0.0023585977 0.00042287944 -0.00040672842 0.0011154556 0.0024231516 0.001249421 0.0009827613 0.0025048275 -0.0003878255 -0.0023614943 0.0020626339 0.00036803892 -0.0013146562 -0.0024481097 -6.920693e-06 0.00060909375 0.0016856957 0.002276263 -0.00084764895 0.0016775815 -0.0011195289 0.0015531456 0.00023934993 -0.0011984833 0.0018393432 0.0017560387 0.00145975 0.0005709185 -0.0014102163 -0.0014052911 0.00016795336 -0.0010570795 0.0020903717 -0.0011080155 -0.0017947595 0.0013480142 -0.0011611923 0.00095666194 5.6749836e-06 -0.00022615214 -2.645388e-06 0.0013973006 -0.0021838387 -0.002239254 0.00025634986 0.0006645036 -0.002084155 0.0012995518 -0.0013042584 0.0006270952 -0.0007436248 0.0021352596 -0.0023188698 -0.0016215971 0.0006954708 -0.0021781027 0.0006880456 0.00014882079 0.0018578384 0.0024119483 0.0024653007 -0.0021055555 -0.0022542386 0.0019121821 -0.0009042225 -0.002422584 -0.00096229697 0.0014081826 -0.00018600191 -0.00046537578 0.00038550302 0.0012829452 -0.0015222596 -0.002281591 0.0009874449 0.0012937705 0.0014951009 0.00040240094 -0.0011125875 6.75438e-05 -5.2093797e-05 0.0023623041 0.0010282873 -0.001198613 -8.8875174e-07 0.0019573586 -0.0023528177 0.0014384944 0.0014393848 0.0009447993 -0.00032489136 -0.0011104967 0.0007691845 0.00062460534 -0.0012138075 -0.0022694648 0.00015784366 0.0017351588 0.0005857511 0.0023566126 0.00055097026 -0.0003977636 -0.0011119834 -0.0022557976 -0.0011527091 0.001026901 0.000478772 0.0011190504 -0.002099734 0.002361505 0.00060796447 -0.00053681945 7.2944786e-05 -0.00039316187 0.0015176514 0.002215704 -0.00096345105 0.00040032703 0.002468168 0.00022543645 0.0017592127 0.0011728564 -0.00050093036 -0.0010066704 -0.0019919847 -0.00078470557 0.0012178703 0.0007484948 -0.0018502532 -0.0022709963 -0.0020253945 5.7154684e-05 -0.00078314694 -0.0002538039 0.0018557137 0.00030464894 0.0012864156 0.00011640795 -0.0014198412 -0.002345472 -0.001718139 -0.0015719776 0.00062126433 0.00062745216 0.0014182952 0.00123609 0.0016008291 0.0009723229 -0.0010665049 -0.00019413696 -0.001138648 -0.0020768566 -0.0018372247 -0.0013193884 0.0021216432 -0.0014452235 0.0015244473 -0.0022529198 0.001187346 -0.002474219 -0.00018636035 0.0005844987 -0.001455265 0.0017215225 -0.00010917298 -0.0003557993 -0.001356407 -0.00042371565 0.0015514772 -0.0006564533 0.0019076252 0.0005167331 -0.0020994814 5.712803e-06 0.0007501032 -0.0003642442 0.00038196918 0.0003922442 0.000120944336 0.0012163582 -0.0003849334 -0.0004755393 0.00057922525 0.0015059129 -0.00047667327 -0.00057148293 0.0017310733 -0.00024836045 -0.001267981 -0.0024731834 -0.001472643 0.0011003675 0.00018229814 0.0010652695 -0.0015111384 -0.0004877141 -0.0012794234 -0.0013537772 0.0021465218 0.0016164265 -0.0016627397 0.00038754908 0.00017992768 -0.00019345261 -0.0007337134 -0.0015081811 -0.00024083367 -0.0006023661 -0.0006088666 -0.0004424377 -0.0010521223 0.0016537649 -0.0019815674 0.00060140673 0.00036633344 6.101346e-05 0.00080094323 -0.0020727783 0.0020097 0.0022192274 -0.00013646678 0.0009639157 0.00097347336 -2.0821852e-05 0.0023330592 0.0014286817 -0.0007792337 -0.0013259167 0.00028175654 0.0019065574 0.0003407111 -0.0013130712 -0.0024790731 0.0023230067 -0.00039798 -0.0013910886 -0.000750967 0.0008772846 -0.0012170052 0.0009637177 -0.001318462 -0.000905157 -0.0024342132 -0.0017789085 0.0019395561 -0.0006117851 0.0022803869 0.0013619096 -0.000104357176 -0.0017226957 0.0021935035 -0.002238907 0.002411387 -0.001035409 -0.00072220137 0.0014074141 -0.00039968925 -0.0014846725 -0.001518232 -0.0002976504 -0.00096409133 -0.001432897 -0.0006964385 0.0022163144 0.0014502931 -0.0011200083 9.79913e-05 -0.0016078749 -0.00023905007 -0.0008682123 -0.001430377 0.0023899546 0.0011077237 -0.002056413 -0.001165375 0.0014873921 0.00041233137 -0.002279171 0.0018541103 0.0020975578 -0.0005801783 0.0017272539 0.001750388 -0.0023915826 -0.0011075041 0.0008727801 -0.0016100197 -0.00015936613 -0.000120334924 0.001094593 -5.0636223e-05 -0.00034699502 0.0018178867 -4.2590673e-05 -0.0017055041 0.0013613192 0.00055765506 -0.0017007511 -0.002185244 -0.0014955497 -0.0016843991 0.002097998 -0.0017270814 0.0020303817 -0.00095072977 0.0012605427 0.00044462123 -0.0012875914 0.0015284953 -0.00027692254
'房子', 0.00018970635 0.0023469094 0.0020338562 0.0020522824 -0.00067720225 -0.0019320967 -0.00023757342 0.00062778837 0.0017167308 0.00014058173 -0.0014963546 -0.00076795137 -0.0017738402 -0.001108601 -0.0017613384 0.0014706396 -0.00095321296 0.0019258274 -0.00016743198 -0.0016943979 0.0014692687 0.0016466039 0.0019590082 0.0011369075 -0.0023070408 0.0003769068 0.0009917979 -0.0019381054 -2.7047246e-05 5.5605724e-05 0.0005444309 -0.0006103602 -0.0014768228 0.00040282778 -0.001601942 0.0021683339 0.0005227761 -0.00096430705 -0.0003281667 0.002436472 0.0006867542 0.0011902739 -3.7690806e-05 0.00033831818 -0.0019161399 -0.00043308275 0.0024663622 -0.0018463931 -0.0021561373 0.00052236905 0.0018046888 -0.0015207122 0.0010019534 0.0005821922 -0.002425463 2.6482912e-05 -0.0021081048 -0.001509319 0.0018540829 -0.0017378164 -0.00021878682 -0.002084524 -0.0013515034 -0.0015787943 0.0021720526 0.0019286568 0.0020683275 0.0019232675 0.0013266987 0.00026946812 0.0022153093 0.0015137473 -0.00042504704 -0.0007703989 -0.0007114798 -0.0010100311 0.002231642 0.0021727465 -0.0015259061 -8.245943e-05 0.0023598485 -0.0003793035 -0.0012197036 -0.0018412024 0.0014762729 0.0011575004 0.0004956174 -0.0023864375 0.0016432524 -0.00038287428 -0.0005176073 0.0023541634 -0.0016866669 -0.00075549784 -1.5554073e-05 -0.002187399 0.0016578721 0.0009840288 -0.0016567415 -0.0016039987 -0.00055476866 -0.0024171423 0.0004925491 0.0019102943 -0.0010640413 0.0008322631 0.0018322218 0.0009819607 -0.0024656763 0.001972599 0.00018233126 0.0012800284 0.00029498234 0.0021311638 0.0020702358 -0.0009565019 -0.00016265623 -0.0017996292 -0.0007965345 0.0013654706 -0.0022741128 0.00041212456 0.001849677 0.0004384643 0.0024339575 0.0014225312 0.0009243495 0.00011135794 -0.00042140935 1.3676311e-05 -0.0016054884 -0.0018500278 -0.0009796262 0.0016333922 -0.0015322893 -0.0004904873 -0.0013318583 -0.0004829737 0.0013106295 0.0006837933 -0.00057948095 0.00090986 -0.00023328271 0.0022110082 0.00115947 -0.0024518585 -0.002436871 -0.0014422586 -0.0023441536 0.0004048287 0.0020768112 0.0005582689 -0.0019122495 0.0020715992 -0.0004989556 -0.00033685061 -0.0019095163 0.0022834442 0.001787127 0.0009375655 -0.00035932031 -0.0017395273 -0.0019799487 -0.0022752483 -0.002276961 -0.00068572897 0.0016665667 -0.0019676911 0.00023428624 0.0013052957 0.00104246 -0.001448903 -0.0018930172 0.0020712293 -0.0013694587 -0.00011879031 0.00087449973 -0.0020084425 0.00018002914 0.00063710136 -0.00035207949 0.0006466258 0.0013391214 -0.00019202832 -0.0009864945 0.0019521532 -0.001683853 -0.0021775146 -0.001759992 -0.0018334747 -0.00071279483 -0.0013407886 -0.0017042357 0.0017769691 -0.00057518424 0.0018280582 0.0005847128 0.0024484235 -0.0014480064 -4.4197335e-05 -0.0021012202 -0.0016597826 -0.0014862797 0.0014770912 -0.0015291322 -0.00096992496 0.0008523974 -0.001660087 0.0010709416 0.0005221885 0.002162051 0.00040012153 0.00061735866 0.0008185031 -0.000103241146 0.0020425876 -0.002112027 -0.0017867129 0.0015108043 0.0020416488 0.002351742 0.0011201777 -0.0009316256 0.00030074353 0.0022221953 -0.0010320194 0.001382242 0.0002635226 -7.97069e-05 -0.002379152 0.00036591312 -0.0017007488 -0.00053135824 -0.001953603 0.0010244261 -0.0006893651 -0.0009859608 0.0002629492 0.0003457076 0.00033958454 -0.0022529382 0.0014289013 0.00014931464 0.0012811888 -0.0009303471 -0.0020760798 -0.0005577305 0.0016419486 -0.0011615058 -0.00068562356 -0.0016943604 0.00040990906 0.0012396473 -0.00051897124 -0.00074361486 0.0022158006 -0.002152403 -0.0004918248 -0.00017187902 0.002430146 -0.0010471176 0.0016207139 -0.0017862679 0.0009956303 0.0019862906 0.0009173361 -0.0017165428 9.135008e-05 -0.0010170735 -0.002501872 0.002238528 -0.0007853918 -0.00030781655 -0.0014387097 -0.0008543589 -0.0024985569 0.0014793492 4.590413e-05 0.0011864484 -4.6493118e-05 0.0009366739 0.0015271012 0.0014596228 0.00054108293 0.002090422 0.0010834137 0.0020178657 0.00040666925 0.0006278152 -0.0006101616 -0.00047956445 -0.00040027563 -0.0014863672 0.00020058925 -0.002457623 -0.0020564334 0.0015869361 -0.0019073389 0.001889613 -0.0007898749 0.00085558096 -0.00022901554 3.302006e-05 -0.0016715066 0.0012093108 -0.00097036967 -0.00069615257 0.0010073609 -0.0024363524 0.0019078108 0.00030038969 0.002396503 -0.0013177115 0.00079235085 -0.0014743028 -0.0004326479 -0.00092516997 0.0019018924 -0.0012875545 -0.0010799059 0.0014158185 0.0014844359 -0.00019821234 0.0021335594 0.0019459315 -0.0015390146 -0.0012543192 0.00044390908 0.0020875612 0.001040814 -0.0020307268 0.00054545136 -0.0021869622 -0.0016251166 -1.9411169e-05 0.0024183232 0.0012359346 0.0011828574 -0.0016429265 0.00018195603 0.0006954944 0.0024879088 0.0009160433 -0.0023441908 0.0006121927 0.0003101493 0.0024544606 0.0017895551 -0.00033350047 -0.001824514 0.0016913541 -0.0014035088 5.3658136e-05 -0.0016938582 -0.0013452409 0.0012762195 -0.0007334657 0.00032366125 -0.0001557538 0.0004374716 0.0009640702 -0.00041243536 -8.599537e-05 -0.0024803565 0.0018759948 0.0016180833 0.0014473208 0.0011834591 -0.0022610454 0.0016001677 -0.00023176685 -7.973561e-06 -0.00081919954 -0.0014724045 -0.0013365269 -0.0008594302 -0.00050482026 -0.002270539 0.0007089902 -0.00067974156 -0.002023465 0.0024769586 -1.3754528e-05 -0.00045494747 -0.00025868017 -0.00092730095 -0.0005492238 0.0021577722 -0.0018203822 0.0023193846 0.00063456147 -0.0014667604 -0.0024180699 -0.0022376755 -0.00075878715 0.001569143 -0.000425083 -0.0007299126 -0.0012576374 0.0019959232
'量', -0.0017751093 -0.0022768287 0.0010205469 -0.0008967952 0.0012985182 -0.0007236434 -0.0003678224 0.0012788589 0.0017015176 -0.0014820492 -0.00038536958 0.0011123008 0.0008261548 0.00123353 0.00014063746 -0.0018348194 -0.0021624186 -0.0013045714 -0.001357217 0.0013113659 -0.0006925776 0.0005718163 0.0024663296 0.00108313 -0.00025551734 0.0014339825 0.0001938055 0.0006597964 0.00063359534 0.0022134893 0.0018415517 0.00020268717 -0.0016063286 0.0014989356 -0.000949116 -0.0020084446 0.0002420062 -0.000492726 -0.0017987204 0.0016875718 -0.001520988 -0.002079071 0.00049804663 0.00087458326 0.0003178385 0.0017621805 -0.0019305244 -0.00089426903 -0.00094967143 -0.002249116 -0.0008175954 0.0020032842 0.0017963848 -0.0024752724 0.00030664832 -0.0006121648 -0.00019757112 -0.00044943675 0.00024832014 0.00086176686 -0.0014451542 0.0010593852 0.0010337996 0.0008349733 -0.0017457742 -0.00067022315 -0.0012103058 -0.002324198 0.0024862906 -0.0010050485 0.0010049731 -0.001257286 0.002477863 -2.5859748e-05 -0.0011566156 0.0014074926 -0.001049926 -0.0002153883 0.0018753491 0.001383879 -0.0013740691 -0.0021100126 -0.0021052281 0.0010213879 0.0018641044 -0.0021415274 -0.0024172617 -1.5431202e-05 -0.0013519753 -0.0011668424 -0.00029344312 0.0017909997 -0.002200259 -0.001394756 -0.00096450443 0.00043796425 0.0022692652 0.0014806503 -0.0012546636 -0.0006855078 -0.0018125998 -0.0003409359 0.0007859985 -0.0014045831 0.002030159 0.0007180539 0.0012715191 -0.0006866387 0.001316207 -0.001556905 0.0017040102 0.0016821218 -0.0023149536 -0.00084796915 -0.00036876887 -0.0012074354 -0.0018806286 0.00028739157 -3.42085e-05 -0.0011626901 0.0015846115 -0.0020118784 -0.0009297535 0.0024974926 0.0005529111 -0.0013053893 -0.0021371562 -0.00016717998 0.0012034893 -0.0003901497 -0.0012683164 -0.0012729139 -0.0023585677 0.0020479562 0.0022327846 1.022444e-05 -0.0016557485 0.0002486967 0.0011213851 -0.00071142067 -0.0012943741 -0.00043221316 -0.0005583946 0.00041955625 0.0017637815 0.0018765663 0.0012949416 0.00016985425 -0.000131767 0.00023109483 0.002469136 0.0016971255 0.00043219974 0.0008937172 0.001708342 -0.0017199876 -0.00047975162 0.00072683743 -0.0012685575 0.0024857007 -0.001993138 0.00204645 -0.0012872372 -0.00059474795 -0.00088048115 -0.002376211 -0.00053424103 -0.0016756685 0.0014274982 0.0017584682 0.00086239335 0.001524314 -0.0007796047 0.00021562165 0.0007796728 0.0010181706 0.0019481324 0.0023865646 -0.0010228467 -0.00035442942 0.0012603601 0.0023088055 0.0005215087 0.0014999456 -0.0014704715 -0.00080075813 0.00048618423 0.0016864295 0.001491218 0.0005284075 -0.00038104624 0.001066475 0.0024601258 -0.0024541696 0.0021202688 -0.0021524876 -0.0017878048 -0.0013174987 -0.00058953284 0.0013288558 0.002427696 -0.0024070651 -0.001510549 -2.7994454e-05 -0.0017618631 0.0007168217 0.0009408962 -0.00013705691 -0.0019018074 0.0014865999 -0.0011025027 -0.001618059 0.0020829742 0.0022005143 -0.0015546932 -0.0015553021 -0.001775679 -0.00016325465 0.0003156755 -0.0015424745 -0.0023650457 -0.0023491438 0.0007470216 -0.0022513557 0.00025633795 -0.0007084925 0.00012502244 0.00033773083 0.00058867806 -0.0010895599 0.0017129928 -0.0019100909 0.0021549514 0.0019222606 0.0003970359 -0.001652091 -0.002479869 -0.0003083871 0.001199288 0.0017031479 -0.0003246311 -0.0024576285 0.0009481635 0.0020657922 0.00090421614 -0.0024744621 -0.0005950888 -0.00045934776 -5.895267e-06 -0.0021454762 -0.00042996864 0.0005828303 -0.001036282 0.0020125366 0.0004265258 0.0008026936 0.0010916119 -0.0005019637 0.002030344 -0.0011089407 -0.000206092 0.0012860352 0.0016135899 -0.0016603338 -0.0020028427 0.0015474095 0.0023273367 0.0019141817 0.0021311466 0.00018742029 0.0020984386 0.0024088435 0.0011250251 -0.0013696192 -0.0021808895 -0.001338431 -0.0009005042 -0.00067982054 0.000343347 0.0009962562 -0.0022135754 0.0017052154 -0.001444838 -0.00021053507 0.0024460861 -0.000812294 -0.0024432794 -0.0020356397 -6.912053e-05 0.0023689233 0.0022723754 -0.0013153219 0.0012514159 0.00047305855 0.00022341017 0.0017278913 -0.0011491163 -0.00047924652 -2.7909029e-05 -0.000103916944 0.0016724367 -0.0014911426 0.0024033987 0.0015373323 -0.0012845322 0.0013115488 0.0020251751 -0.0012346855 -0.001854565 -0.00070103887 0.0014641834 0.0003150598 -0.0020394332 0.0007362898 -0.0014030584 0.000808603 -0.0010481916 0.0022444043 -0.0021631608 0.00204572 -0.001577138 -0.0019093149 0.001844104 -0.0013828331 -0.0003493393 -0.0008175461 -0.0010472246 0.0024359024 -0.0015130768 -0.0020459713 -0.00061868434 0.0019940147 -0.0018482932 0.00057911803 0.00090969243 -0.0016127701 -0.0018826908 -0.001729191 -0.0015513805 0.00090120645 -0.0010281852 0.0010337421 -0.002033296 0.0011564866 -0.00024360398 -0.00070042425 0.0011033315 0.002195439 0.0018653161 -0.001248662 0.00044046913 -0.0012374608 -0.0004354486 0.0007128491 0.0009364787 0.00078407675 -0.00069341325 0.0004898422 -0.001124198 0.0023902117 0.0011563592 -0.00029488592 -0.0020187062 -0.0024266224 -0.0015462008 0.0013693653 0.00025546298 0.0014759873 -0.0005329331 0.0010395892 -0.00013235064 0.0012365076 6.040107e-05 -0.0019391862 -0.0013496984 0.0011302712 -0.0018659752 0.00016375349 0.00033876437 0.0011000697 -0.0012592736 -0.00014277986 -0.00069138524 0.001770786 -0.0016600065 -0.0002806018 0.002272834 0.00087069644 0.0013304369 -0.0019436901 -9.88401e-05 0.0012656746 -0.0012229681 -0.0009609211 0.0024637985 -0.0022714206 -0.00030165035 -0.0005897961 -0.0013325948 0.0003276919
'自營', 0.0017254187 -0.0024951138 0.0014435179 0.0017555302 0.00059613155 -0.0005509996 0.00012690917 -0.0016950502 -0.0020927158 0.0011496651 -0.0011003038 -0.0013520077 0.0022694457 0.00042243896 0.0017191226 0.00240837 -0.0015524108 0.0022915953 0.0021631762 0.00137823 -0.0011797633 -0.0008586384 -0.0007054135 -0.0024252646 -0.0013878394 -0.002152465 -0.0009348326 0.0010486569 -0.0018255482 0.0013809999 0.0004936463 0.0010617373 0.0019383146 -0.0009961572 -0.0012228268 -0.00015175449 0.0020409976 -0.0017804402 0.0007051557 -0.0024353748 -0.002247364 0.0015451198 0.00092439784 0.00086487195 0.00037295578 0.0024481935 0.0022965996 -0.0024192594 0.00017867667 -0.0010839772 -0.0004429083 0.0011813677 -2.6240847e-05 0.0014475959 0.0011897077 -0.0015295896 0.0021481712 -0.00013723031 0.00069876725 -0.0011007345 -0.0022417807 0.0016429253 0.00081280776 -0.0022280137 -0.0006557181 0.0018381216 4.601248e-05 -0.0011739014 -0.0016893353 0.00016254095 -0.00042042654 -0.002300454 0.0013260689 -0.0020411105 0.0005125265 0.00039408225 0.00014107952 0.0024586204 -0.001967455 -3.3119057e-05 -0.000112798465 0.0023935528 -0.0013024642 0.0018969905 -0.0009591529 0.0023866252 0.0006716528 0.0017496026 0.0014061687 0.00067482726 0.0009928042 -0.0024641892 0.00048165556 0.0012446542 -0.002503035 0.002181323 0.00206513 -0.0017871809 0.0012816064 -0.001715708 -0.0015939077 -0.00018858936 0.0023212696 -0.0020239055 -0.0001111279 0.0012316639 0.0007105047 0.0024009834 -0.00066385325 0.0013469061 0.00023078786 -0.0016253386 0.0023489161 -0.0020555155 0.0022358943 -0.0021677066 -0.002208745 -0.001039925 -0.0012554291 -0.0007664486 0.0012026958 -0.0003255622 -0.001963338 -0.0013951227 -0.0024581626 -0.0016489393 -0.0013068828 -0.00077119307 -0.0019100488 0.0010302917 0.0015595055 -0.0013718577 0.0010785246 0.0013707394 0.0014788657 -0.0023784782 -0.0017777571 -0.0011125058 -0.0020673226 0.0022766243 -0.00021383607 0.00029040137 0.0023786982 -0.0011321558 0.0003072425 0.0007511016 -0.00019097149 0.000744751 0.0010879643 0.0021597696 0.0014858259 0.0002181471 -0.00037600382 -0.0020269477 -0.0020619007 -0.0010676106 0.0010515628 0.00080012245 -0.0004754873 -0.00022879528 0.001840628 0.001592306 -0.0009123501 0.0024274075 -0.0016123615 -0.0017739559 -0.00010861341 0.0014192072 -0.0023690604 -0.0012281548 -0.0021942328 -0.0017073295 -0.0015371429 0.0009987983 0.0008614788 -0.0014139004 -0.0015531684 -0.0017357663 0.0019604613 0.0015946218 -0.0020119012 0.0013878145 -0.002048115 0.00010639637 -0.00057906605 0.0020370218 0.00060931494 -4.278773e-05 0.0005183502 -0.002432741 0.0017237094 0.00064866873 -0.0022313509 0.0021169584 -0.0020940893 0.00048441644 0.000636272 -0.002084633 -0.0011901099 0.00021321156 -0.000389761 0.001084044 -4.9731294e-05 0.0021073513 0.0014530373 -0.0022385377 0.0012385466 2.8228778e-05 -0.00014479434 -0.00086914917 0.0012944529 -0.00026371522 0.0017694959 6.2354455e-05 0.002084056 0.0010001286 0.001460256 0.0024388453 -0.002442546 -0.002311396 -0.00061475474 -0.0008138739 -0.0020049491 0.0014924408 0.0011441915 0.0016864293 0.0010853099 0.0011403688 0.0011188486 -0.0012154955 -0.0016013918 -0.0008615507 -0.0006332458 0.0018706245 0.0014252797 -0.0012102433 0.00021503768 -0.000796722 -0.0017816835 -0.0018993081 -0.0019154318 0.0017826207 -0.0011832957 4.8901922e-05 -0.00128988 -0.0015728845 -0.0011348937 0.00018530061 -0.0017665611 -0.0021879459 0.0014925824 0.0010534014 0.00073046115 0.0006723568 0.0003549625 -0.0018877145 0.0020314755 -0.001636026 0.00088224764 0.0024575384 -0.00010295212 0.0015335896 9.799937e-05 -0.00037064977 0.00065152557 -0.0015388455 -0.0005144187 -0.00061488093 -0.0011683188 0.0006095213 0.0007963568 0.0005586369 -0.0013898751 -0.0020619908 -0.0004287941 0.0010924088 -0.0023576568 0.0022173575 0.0022297339 -0.0017852904 -0.0015140428 -0.0012846949 -0.002218468 0.0020350434 0.000104247 0.0015865723 -0.0009713045 -0.0021399274 -0.001291882 9.1841466e-05 0.0019926478 -0.00080979813 -0.0017118292 -0.00096896454 -0.0010111581 0.0016181797 -0.0016675302 0.00046183032 -0.0006767399 0.0018064403 -0.0016914547 0.0008485067 0.0010751013 -0.000781103 -0.0006375923 0.002446872 0.0012391629 -0.0009577548 -0.0004867933 -0.001761206 0.0004736733 -0.0019014634 0.0013067932 -0.0006396482 -0.00012370326 -0.0005164427 0.0011710188 3.2362706e-05 0.0008229589 -0.001157678 -0.001531778 -0.00021991938 -0.0013890525 -0.0006878716 -0.00060781476 -0.0002516581 0.001135486 -0.0017545067 0.00040441085 -0.001310392 0.0005348051 0.0017195874 -0.00066237646 -0.0019876189 0.00044053997 0.0010358817 -0.00032905434 0.0022348578 -0.0018163341 0.0022873806 -0.0006648645 0.0015962536 -0.0022889678 -0.0014993841 -0.0006974548 0.00069997605 0.001342914 -0.0024970227 -0.0013333237 -0.0014779284 0.0006503717 8.279727e-05 -0.0019078688 -0.0009891366 0.0017657889 0.0024856566 7.904042e-05 -0.0005611919 -3.6133526e-05 0.0010029235 -0.0012717941 -0.002337459 -0.0016443754 0.00037580825 0.0019986704 -0.002002699 0.0005343945 0.0007884021 -0.0001342646 0.00026670506 -0.001990855 0.0019214983 -0.0015944499 -0.0024124198 0.0012220998 0.0017050984 -0.00096518977 0.00028120627 -0.001109595 -0.0009026491 0.00032293188 0.0006321527 0.0024850743 0.0006581843 -0.0020756524 0.00051322236 5.620848e-05 0.0014673729 -0.0016736699 -0.0008354507 -0.0010605651 0.0009944565 -0.002226018 -0.00026148595 0.0023603844 -0.0017838923 0.0020060914 0.0006938716 -0.000348447 0.0011184827
'票', -0.0006892294 -0.0019116097 -0.0015218329 0.0005284192 -0.00078952766 -0.0006779049 -0.0014531752 0.0010030273 0.00066917157 -4.591701e-05 -0.0022113144 -0.0024085687 0.00015028384 -0.0017524143 -0.0005618668 0.00061900733 0.0015718958 0.00074235466 0.0022776765 0.001482928 -0.0010960442 -0.0024410107 0.0010354841 0.0015688089 -0.0021706955 -0.002241908 0.00084157626 0.002271216 0.0020841262 0.0023077258 -0.00038108052 -0.0015148803 -0.0017354279 0.0024872236 0.001407677 -0.0005306392 -0.00073587935 -0.00013281788 1.4937508e-05 0.0011715809 -0.002232497 -0.0024261617 -0.0021385523 -0.00026114634 -0.0019427958 0.001315134 -0.0022911164 0.0013092216 0.0018519455 0.000771185 -0.0015673424 0.0015856142 -2.1879254e-05 -0.0019840344 -0.0020658723 0.00041214368 -0.0008648032 -0.0020605945 0.0015974547 0.002299062 0.0013775326 0.000248556 -0.0010670687 -0.0021429118 -0.001479107 -0.0007641031 0.002408157 0.0017086049 0.0013761955 0.0004956927 0.00015947496 -0.0022949371 0.0014475385 0.0017213956 -0.0010304766 -0.0018578882 -0.0010058703 -0.0007952943 -0.0010464302 0.0012476026 0.000535824 0.002472627 0.001575324 0.0020278797 -0.00024431865 0.0019678674 0.0016192839 -0.0007841354 0.002372061 0.0018831586 -0.002401253 0.0014820661 0.0019602382 0.0009943172 0.0004340514 -0.0023379256 0.0016389573 -0.0023820824 -0.0020960364 0.0004433711 0.0015231058 0.0017613769 -0.00040049272 -0.002284206 0.0023964066 0.001787836 0.0004634624 -0.00028579478 0.00013325234 -0.000491803 -0.0022189994 -0.001953444 0.0019504775 -5.745465e-06 -0.0014532031 0.0003591176 9.796032e-05 -0.0013556101 0.0004667352 -0.00048289477 0.00015348307 -0.0016131094 0.0015175208 0.001895009 0.00083994836 0.0014862033 0.002142445 0.0016771179 0.0016416041 0.001962473 -0.0005439695 -0.00015210072 -0.00092645374 0.00046605032 -0.0017621528 0.0022262475 0.00058515277 -0.0020251411 0.0023789564 -0.0016609997 -0.0009883401 -0.0010377301 -0.0011862728 -7.305974e-05 2.2625843e-05 -0.0024378696 0.0007523478 0.0019573537 -0.00048769655 0.0013000327 -0.0017685395 -9.2983646e-05 0.0016024405 -0.00037481746 0.00192641 3.9225495e-05 0.0024592963 -0.00083975977 -0.0024386763 0.0015649548 0.0011976104 -0.0017523022 0.0016507442 0.0022056515 0.0015653732 -0.0010193358 -0.0019211656 -0.002332178 -0.001125495 -0.00094358326 -0.00045806516 -0.0008150234 0.0022407477 0.0011406138 -0.0015813726 0.00082449 -0.000104003986 -0.001264087 0.0024220147 0.00070558925 -4.7304737e-05 0.00084196264 -0.0016878512 -0.0008533197 -0.0008264023 0.0017100477 0.001955026 -0.00072792824 -0.0012089923 0.0013452312 0.00021674082 0.000933846 0.0011826977 -0.0020012183 -0.00093397824 -0.0009621298 0.0009456807 0.0014748295 -0.0011313317 -0.00073367247 -0.00032619917 0.0022195878 0.0021424368 -0.0005420534 -0.0017161438 -0.0013578145 -5.4214175e-05 0.00050677423 0.0010700604 0.0009424474 0.00087925943 -0.0016751136 -0.0009633484 -0.0019833113 0.00033239965 -0.0020812186 0.0012912343 6.044204e-06 -0.0020841274 0.0010576202 -0.0017456287 -0.00030834405 -4.8166716e-05 -0.00071964087 -0.0006799389 -0.0010261439 -0.0008384259 0.00037565146 0.0019611332 0.0017991139 0.0024987194 -0.0014578538 -0.0017475425 -0.0024347247 6.0217124e-05 -0.00155595 -0.0005800211 -0.00065364555 -0.0016239345 -0.00046397877 -0.000765756 0.0017468529 0.0012807413 -0.002366949 -0.0009489851 -0.0010557582 0.002471517 -0.000261293 0.002072983 0.0013137734 0.0009534439 -0.00071752386 0.0013652262 0.00048616808 0.0003011122 -0.0010637012 0.00047097413 0.0023118444 -0.0023599952 -0.0002632316 -9.451204e-05 -0.0010535853 0.00073260115 -0.0024121576 -0.0006854312 -0.0015987644 -0.00087172486 -0.0016641471 -0.0009313604 -0.0005005557 0.001643814 0.0019415041 -0.0013945083 0.0023799478 -0.0012733149 -0.0024679792 -0.002194991 0.0015202666 -0.0010007985 0.0012538503 0.0009448203 -0.0022564281 0.0004132604 -0.0007808124 0.00046454708 -4.8488237e-05 -0.00039387977 -0.0024311845 0.00074370997 -0.0008258789 -0.0016546665 -0.00069621793 -0.0013188892 0.0016473096 0.00042094366 0.0009537681 0.0013392984 0.00016184556 0.0010352076 0.0013723882 -0.0018510243 -0.0007028536 0.0023993913 -0.0014227512 0.000726583 -0.0018949277 -5.657346e-05 0.00052078906 0.0018290306 -0.0015499904 -0.00094852824 0.0024507314 -0.0024313924 0.00040849604 -0.0013282414 0.0002678728 -0.0016240843 -0.0010279969 0.0011878787 -0.0010138408 0.0003524672 0.00010919023 0.00228507 0.0005525937 -0.0005901355 -0.00031750766 -0.0018866064 -0.00010363645 -0.0012562149 0.00077766005 -0.0024822238 0.0008421021 -0.00035702606 0.00086885964 0.0009867991 -0.0001779038 -0.0016269678 -0.002230758 -2.1879161e-05 -9.072896e-05 -0.0006793319 0.0014531695 0.0002236396 0.00040128615 0.0021585834 0.00087140925 0.0009964762 0.0017314526 0.0015947646 -0.00036063904 -0.0018343733 0.0012223953 0.00079542346 -0.0011583276 -0.0017925821 -0.0013534526 -0.002363832 0.0021160382 0.00022863357 0.0018879431 -0.000999608 -0.00055760704 0.00033755164 -0.0016388489 -0.0017583593 0.0010048467 0.00018233477 0.0012183716 -0.0014219617 -0.0010453094 0.0011871753 -0.0020165362 0.0018772143 -0.0009453536 0.0019495544 0.002420859 0.0013862045 -0.0011514694 -0.0006145446 0.0024330432 -0.0021220383 -0.0005449011 -0.0022081523 -0.0008099847 -0.0001986212 -0.0020924374 -0.0016650875 -0.00060344575 0.0016488658 -0.00044509344 0.0018612146 0.0016942901 0.0015775948 0.0013761497 0.0015429449 0.0017034085 0.0010572284 0.0005673106 0.0012412411 -0.00016182914
'重點', -0.00029644446 -0.0018808722 0.0010382456 -0.00061895873 -0.00027973004 0.0017608003 0.0015336187 0.0006615292 0.00086694193 -0.002116671 0.0009072748 0.0016306875 -0.0021837382 0.0018740282 0.0013291457 0.00097524154 -0.000785432 -0.0021698053 -0.0009929152 0.0007952451 0.0024970716 -0.0012664795 -0.0022952252 0.00087688776 -0.0017332642 -0.0010538521 -0.0017698972 -0.0023018091 0.0020684176 -0.0013797642 -0.00087558135 -0.0015432101 -0.0016759245 -0.0013515891 0.0018133373 -0.0004031994 -0.00031243332 -0.0012765451 -0.00140203 -0.0005725784 0.001225447 -0.0004720787 -0.0010118383 0.0024359275 -0.0002630604 -0.00013075897 -0.0014620364 0.00092285627 0.0022182502 -0.0014738983 -0.0009094531 0.0012558963 0.0018584395 -0.0013071143 0.0017961118 0.0009116437 -0.001537672 0.0019637623 -0.00061697286 0.001990305 0.0006449701 0.000685475 -0.00073682476 0.0007392775 0.0018370461 -0.0002195629 -0.0022609401 -0.0015576107 -0.0006739358 -0.0024646022 0.0018756124 -0.0009180889 0.0010420555 -0.0020082882 0.0017466272 -0.0017088095 -8.924534e-05 0.0011248845 0.001439446 -0.0016157265 -0.0003379547 -0.0012679696 0.00029891083 0.0005508538 0.00082309847 -0.0003176112 0.00088908884 -0.0018288068 -0.00183264 -0.0005840294 -0.0013853796 0.00046481064 0.00019171146 -0.0014509488 0.00050890393 -0.0023199518 -0.0020976393 0.0017918296 0.0022078368 -0.001068649 -0.0018577349 0.00076894613 -0.0013063747 8.972217e-05 -0.0009639103 -0.00080461556 -0.0002746275 0.0021382729 0.0020418484 -0.00060658855 0.0004907979 0.0011311936 0.0012665658 -0.0005542515 0.00029621122 0.0005370677 -0.0007042401 -0.001262809 0.0017243989 0.00043284142 -0.0003092628 0.00028611603 -0.00020284948 -0.0011833047 0.0018639123 -0.0012984419 -0.0005544501 -0.00055689807 0.0013739422 -0.00011368665 -0.0006383688 0.0014877252 -0.0018389003 0.0010423347 -0.0006693321 -0.00083526346 -0.002132288 -0.001335193 0.0020757103 -0.0010521164 0.0001802754 -0.00025142732 -0.0011617001 -0.0014823559 0.00111384 -0.00035869775 -0.0007902862 0.0009268157 0.0016805762 0.0012291938 0.00093999825 0.00033709724 -0.0005771537 0.00017573014 -0.0019627865 -0.00023556619 -0.00035506586 0.0011197297 0.0024571738 -0.0018781341 2.7820937e-05 1.9844558e-05 0.0020897808 -0.00055318687 -0.0017351256 -0.0009342426 -0.0023779003 0.0013220867 -0.001332077 -0.0008080992 0.002236698 -0.0019538552 -0.0012530589 -0.00015519277 0.0016042036 0.001462896 -0.0006025191 0.0009786526 0.0016440202 -0.0013133129 0.0009912199 -0.0021976402 0.0001922318 0.00014808695 -0.001770633 0.0022935187 0.00047772613 -0.0007511143 0.00064024027 0.0024479385 -0.001344151 0.0021037478 0.0013546934 -0.000660564 0.0021203847 -0.0024860802 -9.5781754e-05 0.001702421 -0.0015571237 -0.0012423521 -0.00074213016 0.0018122112 0.0015910963 -0.001113929 -0.00054525974 0.0014425425 -0.0022627749 0.0010727071 -0.0002446608 0.0010937281 -0.00071621157 0.0018003018 -0.0008850756 0.0014793025 -0.0018458654 -0.00016065432 -0.0023112034 0.001986523 0.0015493537 -0.0019941167 -0.001618526 -0.0012166761 -0.0021740613 0.00085710804 -0.0016819341 -0.001717403 0.00016832526 0.00095127337 0.0017116638 0.0002875382 -0.00033396608 0.0021510643 0.00061362784 -0.0009083244 0.001932565 0.0019024217 0.0010395809 0.0011240327 0.00052932097 -0.0017252956 -0.00058251276 -0.0024818575 -0.002303367 -0.00027995734 -0.0010924834 -0.00022695145 0.0011376013 -0.00038847496 0.0023757454 0.0015693088 0.0015845618 -0.0019961437 -0.0007250757 0.0024620232 0.0012855573 0.001144801 0.0012557475 0.0020740677 -0.00030162258 -0.0010120381 -0.0022873597 0.0021352894 0.0016622391 -0.00076502527 -0.00022972476 -0.00017075292 0.0017869271 0.0019491196 0.0018546574 0.0012935224 0.00057030254 0.0013877075 -0.00013621013 0.00046604016 0.00028248338 -0.00046671054 0.0012463711 0.0007633689 -0.0001652899 0.0003538599 -0.0023505697 -0.0013145582 -0.0008154966 0.0018764434 0.0013091236 -0.00063654804 -0.0023875604 0.0010887638 0.00020949231 -0.0022339642 -0.0017384236 -0.00072972913 -0.0004006169 0.0023622692 -0.00036931815 -9.517944e-05 0.001245298 -0.00022754929 0.0019828517 0.0020581018 3.2397238e-06 -0.0017303562 -0.0022506767 0.00017245572 0.00051564147 -0.0016937873 0.0008936158 -0.0014590296 -0.001799644 -0.0012942752 0.00040837907 -0.0020895347 -0.0023409065 -0.0023170195 -0.0017153414 0.0018802282 -0.00035462505 0.0022525701 0.00041617794 -0.0022101246 0.0013099847 0.0019587735 -0.0013852555 -0.0010358936 0.0013421614 -0.000889729 -0.0009801061 -0.0010718827 -0.001274683 0.0013763411 -0.0010377619 -0.0013609942 -0.0003299667 -0.00017444127 0.0016669477 -0.00011058089 -0.0024508564 -0.0019196434 -0.0018858679 -0.0010603821 -0.00015564196 0.0010023904 0.0020491704 -0.001794751 0.00037739924 -0.0011093378 -0.0020678842 -0.0013534531 -0.00037741495 -0.0017954281 0.0012661245 0.0012022171 0.0002113297 -0.0016648826 -0.0005036942 0.0010367448 -4.3226562e-05 0.0022139638 8.9908826e-05 0.0022180653 0.0013904573 0.0009041332 -0.0017597132 0.00037085544 -0.0022223685 0.0022246707 -0.00080560695 -0.0011297679 -0.0010236904 -0.0012928523 0.00093859097 -0.0009993074 -0.0016875872 0.002196279 -0.0017197329 -0.00045537367 -0.00196036 -0.0017804692 -0.00033184825 0.00043064696 -0.0019521324 -0.00017990344 -0.001200978 3.0914118e-05 -0.0010024594 0.001052551 -0.0017214052 0.0024735413 -0.0011170125 -0.0012030214 0.0021965273 0.0016240185 -0.00012445217 -7.908213e-05 -2.7869834e-05 0.0008394881 -0.0016092252 -0.00073159614 0.0007336766 0.0022525692
'阿肥', 0.002115084 0.0013717341 -0.0009173048 -0.0011267469 -0.0016126772 -0.00011275071 -0.0011261608 0.0012990863 -0.0011627557 0.0014978028 -0.0011163316 -0.001115504 -0.000233588 -0.00034637243 -0.0008297975 0.002082306 0.001878247 0.00089822966 -0.0005411023 -0.00025249648 0.002449376 -0.0010650121 -0.00046178832 -0.002065245 0.000878553 0.0019287866 0.00068277825 -0.0010096377 0.00039732276 0.0015737324 -0.0007171839 -0.0008512621 0.0023353163 0.0001841855 -0.00022745116 -0.0010686683 -0.00046743997 -0.0013759844 -0.00032112072 0.00011244552 0.0021062004 -0.0016142407 5.408603e-05 -0.0012247924 0.00094108685 -0.0010002395 -0.0017004218 -0.00059446663 0.0014847601 0.00011519537 -0.00065232965 -0.0014202708 -6.175135e-05 -0.0013324422 0.0009875604 -0.0023374967 -0.002072021 -0.0014605965 -0.0013256804 0.0018191823 0.00044267936 -0.00080395216 0.00037417375 5.3408392e-05 -0.002217207 -0.0010262833 0.00064178265 -0.0008153175 0.000957688 -0.00077010505 -0.00088588183 0.00208993 0.0021097902 0.00017016847 0.0016182874 -0.0011214477 -0.0012156677 -0.0006377892 -0.000105430685 -0.00037788483 -0.0007459802 0.0013505433 -0.0017466707 -0.0020523472 0.0010421498 -0.0015729306 0.0020896662 0.0005105997 -0.0009096869 0.0023167385 -0.0008103222 -0.00054037035 -0.00020547844 -0.0020486242 -0.0018487711 0.00071185414 0.0012575313 0.0016685162 0.0008035114 0.002232959 -0.00037473254 0.0021399432 -0.0014213719 0.00015345888 -0.0016067589 0.0014107096 -0.00073702785 0.0014636972 0.00015883453 -0.00040418198 0.00022535126 -0.00078928017 0.0001647186 0.0007023594 -0.0004203757 5.6704062e-05 0.002476063 -0.0012907011 -1.8064084e-05 0.0011494812 0.00021295602 0.0012379346 -0.0023267923 -0.00025728412 0.0009577896 -0.0020036004 0.00093807164 0.00047400492 -0.0010449161 -0.001655816 -0.0023780304 4.7181333e-05 0.00097499747 0.0019483041 0.0021010474 -0.0004824354 -0.0008321773 0.0010309346 -0.0021996936 -0.0023718432 -0.0015971411 0.00043106664 -0.0010727635 -0.0019552303 0.0017384494 0.0009557893 0.0013319476 -0.0017693137 -0.0005837833 0.002330258 0.0019193544 0.0016372367 -0.0022942084 -0.0014040269 -0.0024491511 0.0021269203 3.2916774e-05 0.0008935836 -0.0011757086 0.0012909543 -0.001995361 -0.0012592027 -0.0015961685 -0.0014657929 -0.0023948827 0.0023665198 9.629978e-05 -0.0018229041 -0.00084208604 0.002226213 0.0017095488 0.0015024837 -0.0010533157 0.0016555422 -0.0011682943 -0.0019123628 0.00048023474 -0.00016859737 0.001285985 -0.0021744221 0.0007769204 -0.0003136417 0.00096444535 0.0017307128 -0.0013162203 -0.0017478444 -0.0005926898 0.00055652065 -0.000634642 -0.0017587636 0.0010992734 0.0010988828 0.001881378 -0.0023824265 -0.0022091377 0.0004748525 -0.0017264308 9.456008e-05 0.0017471844 0.0011035124 -0.0022022617 0.0016808362 -0.0017639126 -0.0005569892 -0.0004532346 0.0011694446 0.0009609384 0.0021993888 -0.0019960022 0.0022039418 -0.0012393846 0.0017932527 -0.0007976994 0.0022470166 0.0013824971 -2.4697467e-05 0.0022307003 -0.0010744121 0.0010817823 -0.00015618281 -0.0022608463 -0.001185654 -0.0004452611 0.0021722028 -0.0023823457 0.00062603323 0.0017437446 -0.00097018236 -0.0016709258 0.0004740962 0.00225567 -1.11997715e-05 -0.0023622466 0.0006826011 -0.00054770365 0.0018610144 0.00225578 -0.0019780865 -0.0012816648 -0.002421986 -0.0012983199 0.0010928428 -0.00084740645 -0.0008057413 0.002239947 0.0017085212 -0.0020762437 -0.00094258663 -0.0010612422 -0.0017242759 -0.00093220704 0.0020842338 0.00076932996 -0.00194364 -0.00063380995 0.00013985047 0.0016114848 -5.1104682e-05 0.0023729515 -0.0017187115 -0.00095608743 0.00056124653 -0.00074583763 -0.000549128 0.00013039018 0.0021638814 -0.0010260612 -0.0002273023 -0.0018332639 -0.0018304533 -0.0001322638 -0.0024304828 -0.0013556415 -0.0022710382 -0.0006152703 -0.000983785 -0.0023511897 0.0019773014 0.0014623058 -0.0011352138 -0.0022367982 0.00033299133 -0.0008004591 -0.00062442897 -4.7805486e-05 -0.00047674013 0.0022381213 -0.0018062857 0.0018425097 -0.0004567444 0.0024890385 -0.0020995436 -0.00029018233 0.0024239202 0.00031751287 0.0023197057 -0.0007678825 -0.0021211074 0.0014034287 0.00076427776 -0.0024971 -0.002199763 -0.0022676394 0.0018681361 0.00076954183 0.0015133532 0.00086363975 -0.0011808682 0.0005016703 0.0006002446 -0.0015794857 0.0006565603 -0.0021516911 -0.0018540641 0.00032234826 -0.001781053 0.00092993275 -0.0019905262 0.00083322026 -0.002086704 0.00170933 -0.00046009026 0.0010211383 0.0014217839 0.0012779603 -0.0023520035 -0.0022519173 0.0020646218 -0.0023384069 0.0015003685 0.001486551 0.0012663577 0.001644336 -0.00017916977 0.0015144323 0.0014995972 -0.0021685136 0.0018962516 -0.0023401538 -0.0019410822 -0.00085472234 5.4806995e-05 0.0012165797 -0.0023399028 -0.0016067955 -0.0005359897 -0.0017218081 0.0019512993 -0.00087420613 -0.0010827093 0.00043338427 -0.0016368421 -0.0019181177 0.0015329017 -0.0007411531 0.0014206822 0.0007811372 -2.1531643e-05 -0.0019683656 -0.0018453285 0.002226519 0.0019963009 -0.002393406 0.0006497625 -0.00088387553 -0.00022406175 0.00027894456 0.0010772893 0.0010035058 -0.00080800947 0.001127271 -0.001153676 -0.002326683 -0.00018397186 0.00042125894 -0.0012526478 0.0015673797 0.0014812939 -0.00044176416 0.00091379683 -0.00122321 0.00080590794 0.0023372553 -0.00064978027 -0.0014898606 -0.00030641703 0.00016610726 -0.0012814857 -0.0016158539 0.0021426869 7.9392594e-05 0.0015227123 -0.0018145493 -0.00060692494 0.00013610741 -0.00066627684 0.00022998541 -0.0017467868 -0.0001613949 -0.001726748
'拿出', 0.00094246975 -0.0013305608 0.0023526694 -0.0019781648 7.787804e-06 0.0020961065 -0.0005495404 -0.00030241522 0.0023877015 0.0024832222 0.0012605955 -0.0003896407 0.0019078526 0.0012878629 0.0009332625 0.00060093397 -0.002165925 0.0004367801 -0.0012236473 0.0017505235 -0.00032010727 -0.0012890135 0.00047250578 0.0013163837 -0.0016143231 0.0023536724 -0.000106337015 0.0017770815 -0.0004994412 0.002190951 -0.0020236392 -0.0008905926 -0.002005848 0.0021150734 0.0013502834 -0.0011870118 7.040935e-05 7.560879e-05 0.00204848 -0.00039368728 -0.00093225343 0.0007473918 0.0017890293 -0.00038045572 -0.0008129025 0.00068258133 -6.423485e-05 -0.001266286 0.0024389795 0.0016152889 0.0015529532 0.00057201454 -0.00038916955 -0.00037505888 -0.0021220623 -0.00014644797 -0.00062972255 -0.0022677374 0.0020380241 0.0007522271 -0.0017672513 0.002333181 -0.00064079964 -0.0004515979 -0.0013013745 0.00039400964 -0.0014992653 0.00016585163 -0.0003871758 -0.0020791518 0.0013984649 0.00038544298 -0.0020854967 0.00097563374 -0.001510295 0.0010952638 -0.00016335916 -0.000629809 0.0014851462 0.0021494085 0.00050451886 0.00024462034 -0.00024722298 -0.0005550385 -0.0013028899 -0.00025885325 -0.00096698914 -0.00042856493 0.0020243346 0.0017856831 -0.002403727 -0.0016959572 0.0014360842 0.002025812 0.0003952803 -0.00035143743 0.0023688446 -0.0020017112 0.0006810541 -0.0021622344 0.0009360476 -0.002171641 0.0021648328 0.0008755961 -0.00032055788 0.00066463824 0.0012932384 6.1017236e-05 0.00047376635 -0.0006841057 0.002271729 0.0023784728 -0.001279065 0.00064060884 0.0018641024 -0.000893299 -0.0018567347 -0.0007927209 0.00021494701 -0.0007739428 0.002277538 0.002322982 -0.001723013 0.0013629926 -0.0008985224 -0.0016644134 0.0021173193 -0.0014297438 -0.0023415787 -0.0007602301 0.0006593594 0.00074294925 -0.0008449477 -0.0014072077 -0.0009641067 -0.001540792 0.00065252424 -0.000579895 0.0019603705 -0.0024519013 -0.00055100204 -0.00022672952 -7.032671e-05 0.0010049199 -0.0012769693 -0.0014543334 -0.00077476737 -0.0010563761 0.0015180811 -0.00062407146 0.0009775783 -0.001768485 7.616207e-05 0.0009569613 -0.000215719 -0.0012578133 0.0023330369 -0.0021147123 0.0014775365 0.0016150639 0.0006581034 0.00032908356 -0.00054178736 0.0021170885 0.00052900374 -0.0011368127 0.0007528198 0.0019741529 -0.0024487542 0.00056862866 0.0015247761 -0.0008382628 -0.00086814194 -9.6811156e-05 -0.00027956485 8.1362734e-05 1.4681503e-05 0.001481176 0.0020394756 0.0018170286 0.002078825 -0.001120058 0.0015626254 -0.00062318344 -0.0007411556 -5.121927e-05 0.0005325104 -0.00062921055 0.00039806822 0.00021023038 -0.0019226691 -0.001484759 -0.00010211379 -0.0020374036 -0.000950683 -0.0008145407 0.0006369406 -0.0020935503 -0.0017917025 -0.0016848583 0.001910542 0.0012405174 -0.0021006365 0.0007930653 -0.00014756719 0.0008750548 -0.0010569369 0.0016071536 -0.0021386798 -0.0015076217 0.000801001 0.001050072 -0.0017464854 0.0014729619 0.0005800706 -0.0015866895 0.001397491 0.0015621101 -0.0011343834 0.0021770247 0.00015235416 0.00058999937 0.0005561086 -0.0015067158 0.00039250523 -0.0008129776 -0.0022267508 0.001972832 0.0024038665 -0.0019822565 0.0018359578 0.0018733712 0.0022893744 -0.0020863523 0.0018437069 0.001177144 -0.002394568 0.0022922799 -0.0006657419 5.4785196e-05 0.00014662581 0.0009084514 0.00068081473 -0.00089077017 0.002341275 -0.00087843277 0.0009660179 0.0006971188 -0.0014988208 -9.891372e-05 0.00032834517 0.0018513263 -0.0024875333 -0.0018607646 0.00060592446 -0.002156412 -0.0009418415 0.0010986477 -0.0019077191 -0.0005292757 -0.0017572199 -0.0009908776 0.0015145902 -0.0021794734 -0.0024685601 -0.0007210719 0.0010968421 0.0010170551 -0.0023418649 0.00056074647 0.0017103625 -0.0019271487 0.0016912483 0.0016331754 -0.00030229668 -0.0013633405 0.00012984328 -0.0008671467 0.0010799309 0.00023820187 -0.001097583 0.0016679206 0.00075109967 0.0017995466 -1.6037942e-05 0.0013454861 -0.0020991524 0.0007542584 0.0022389474 0.002314645 -0.0024244143 -0.0009053137 0.0020838422 0.00085489417 -0.00118687 -0.00041427262 -0.0019638853 -0.0019045365 -0.00059809745 -0.0013654354 -0.001923141 0.0023665363 0.0009801516 0.00043174 0.0004797712 -0.0015153235 0.0019776856 -0.000774765 -3.355864e-05 -0.00014273582 -0.00046196813 -0.0017721255 0.00080893154 9.4889154e-05 0.0021190855 0.0005680955 -0.00073165866 0.00047884515 -0.0006829283 0.000916153 0.0010409033 0.0009946544 0.0018522037 -0.00018654045 -0.0021509824 0.0023980066 0.0013634665 0.0013230143 0.0008777188 -0.0010712205 -0.0015893779 0.001264468 0.00050842506 0.002357955 0.00024934474 -0.0010222468 -0.0016795524 0.0023883556 -0.0023112113 0.0003737216 -0.00070422 0.0023260424 0.00022060677 -0.00078281714 -0.0022008342 0.0011867232 0.00092912867 -0.0016915377 -0.0018521015 0.00041656074 2.7034248e-05 -0.00038845485 -0.001981297 -0.0018200248 0.00011546475 -0.002057846 -0.0024262327 0.0008143916 0.00054448325 -0.0013858799 0.0001304299 0.0007774875 0.0017770868 -0.0018951811 0.0015082186 -0.00031651463 0.0022201024 -0.00048636095 -0.0021675152 -0.0016264487 0.0022708694 0.0021989595 0.0022707754 -0.0017362954 0.0018192206 0.0020494685 0.0022939944 0.0013974543 0.0017452275 -0.0022462318 0.0024171367 -0.0022617746 -0.0016816775 -0.00068277563 -0.002290167 -0.0015330943 0.0005946733 -0.0019771678 -0.0024233628 -0.0017957147 7.531838e-05 -0.00032639632 -0.0015423023 -5.4587166e-05 -0.0012750897 -0.0018179102 0.0017188223 0.0020137746 0.0011947762 0.0024339524
'追', 0.00084741606 0.0021062493 -0.00021374258 -0.0018036221 -0.001972646 -0.00026858234 0.00040004743 -0.0018946311 0.00035638362 0.00032083716 -0.00040570664 -0.0024456342 0.0005806577 -0.0011659903 0.0019128576 -0.0013875016 0.0024964649 0.002198408 0.0023863327 -0.0017270634 -0.0012204272 1.661049e-05 -0.00016578165 0.00037030695 -0.0018318718 -0.0018889855 0.0020991177 0.0011491593 0.00013222631 0.00054849824 -0.0009270385 -0.00021018452 0.00052251597 0.0015639376 -0.0019919507 -0.0016672339 -0.001102668 0.0005902448 -0.00072664244 0.0005147445 -0.0005705509 -0.0012538357 0.0024583177 0.0024101057 -0.0023092532 0.0022203715 0.001470069 -0.0017749146 -0.0011423652 -0.0007409156 0.0025041082 0.0023890873 -0.00028746968 -0.0014327003 0.0021485554 0.0009915152 -0.0021692244 0.0007082793 -0.0023224095 0.0022110185 -0.0013457256 0.0005792276 0.00080536737 -0.0019096837 -0.0024385029 0.00082506466 -0.0007223292 -0.00069162814 -0.002141674 0.00035255146 -0.0023380474 -0.0018048828 0.0004379993 0.0020907195 -0.000974168 -0.00089280703 -0.0024558308 0.0016420127 -0.0022107097 -0.0021415178 0.0012929267 -0.0020676686 0.0012137301 -0.0017411871 0.0020077096 0.00030741448 0.0017227675 0.00025862735 0.0010562413 0.0006638331 -1.3198189e-05 0.0009027284 0.002381919 0.0009940988 -0.00061534956 0.001726467 0.00068469305 -0.00203963 -6.959215e-05 -0.001564795 0.002394258 0.0017479376 -0.0019020579 0.0019149644 -0.002152715 0.00084628985 0.002269366 -0.0009660974 0.0020531805 0.0009762097 0.00057125284 -0.0011156605 0.00019094672 0.00056310254 -0.002114808 0.0017083127 -0.00062184536 -0.0016902722 0.00076649187 -0.001278881 -0.0013745116 -0.0019465914 -0.000581336 0.0011447901 0.002400565 0.0021564248 -0.0013289816 -0.0013861012 0.00067047006 -0.0007044291 0.0013405534 0.0015236005 -0.0006719485 0.0007467594 0.0020084581 -0.0017217771 -0.0018657563 -0.0016869907 0.000114892544 -0.00037341434 0.0008788946 -0.0015855028 0.0006207105 0.000102743674 -0.0023152574 0.0020164673 -0.0007846302 -0.0004853859 0.00086871756 0.0002660146 -0.0011101179 0.0016689695 -0.0019445983 0.001342319 -0.00064704294 0.001267694 -0.0019207663 0.00088575017 0.0022272002 0.0008992943 -0.0024886492 -0.0014939047 -0.0023015458 0.00198004 0.0024325287 0.000998903 0.0018930952 -0.002303809 0.0023706122 0.00019677148 0.0021912423 -0.0010370809 0.0020882704 0.0016337811 -0.0009829545 -0.00033835685 3.7670668e-06 -0.00026688832 -0.0013522439 -0.0011171064 0.0018680432 -0.00045875215 0.001750325 0.0012647032 -0.0010051542 0.0017897651 -0.0013166184 0.000282757 -0.00048427077 0.0023092881 -0.00028482554 0.00096425076 0.0014390284 0.0002833426 -0.00037465437 0.000814013 0.001518164 -0.00033331424 0.001637017 0.0023718511 -0.0009930767 0.00042862727 -0.00025949156 0.00081936974 0.00028376433 -0.0007036826 -0.0015719224 0.0017624773 0.0019961786 0.0020090067 0.0020955843 0.0002937245 -0.0024193628 -0.0016884985 -0.0019947314 0.0010285244 -0.002081516 0.002319892 0.00025397472 -0.0004398709 4.2070635e-05 -0.0020681955 0.0007443967 -0.00023703475 0.0016402609 0.0021936118 0.0013057251 -0.0017814462 -0.0006061503 -0.0013170061 -0.0015791871 -0.0023023454 -0.0013109029 -0.00096183544 -0.0016258656 0.0021731479 -0.0005930548 0.0011964723 0.0013407002 -0.00081498513 -0.00065862446 -0.001557341 0.0004340439 -0.0014959004 0.0024721466 -6.5217726e-05 -0.0020421913 -0.001752735 -0.0013750128 0.0014590083 0.00053089694 0.0005140045 -0.0008065871 -0.0019647118 -0.0021869338 -0.0004349705 0.00090599863 -0.0010364092 0.0020328779 0.0014384913 -0.0020264236 -0.0015436102 0.002298512 0.00082390837 -0.0006699682 -0.0013257287 0.0015731449 -0.0004728521 0.0012808319 -0.0024647936 0.0017369388 -0.0018532558 -0.002207376 0.0020414481 0.00093743595 0.0014315232 -0.0016055414 -0.00061956723 0.0022508088 0.0002637168 -0.002179466 -0.0022869408 0.0016512733 -0.0022665772 -0.0008413498 -0.002318206 0.00070688943 0.0006374492 -0.0019600447 -0.00016231624 -0.00013115614 -0.0015877723 -0.0005532981 0.000898461 0.00095980155 -0.0013079981 0.0010413851 0.0019827932 0.0012563829 0.0013674418 -0.0015423194 -0.001981042 -0.0014503415 -0.0010721332 -0.0010689668 0.0014425755 -0.0020876348 -0.0010058902 -0.0015870867 -0.0023455133 -0.0017632085 -0.0012682639 -0.0009853836 0.0011411173 -0.0008263285 2.2475835e-05 0.0011359568 -0.0021521815 -0.0012196585 0.0009843282 0.0004376368 -0.002413678 0.00034120458 -0.001135918 0.00047413827 0.0002816828 0.0018141798 -0.0005880127 -0.002465425 -0.0022171123 -0.002214185 0.0018741176 -0.0024567954 0.001603809 0.0013593452 0.0015066551 0.0009971827 -0.000271033 0.00076149346 -0.0021426345 -0.0016525843 -0.00026315852 0.00026149058 -0.002355118 -0.0020897693 -0.0015077266 -0.0023902124 -0.00056951895 -0.0010624727 0.00097458414 -0.0020794151 -0.0014820235 -0.0006802679 0.0020435893 -5.9962025e-05 0.00019161294 0.002103288 0.0022715887 -0.0021111988 0.0023591677 -0.00088904065 -0.00050784653 -0.0012432828 -0.0008679955 0.0006116415 -0.0014797915 0.0020216175 0.0018017592 0.0019655228 0.00065028435 0.0016568847 -0.0003197504 0.0008055712 0.000902783 0.0010584136 0.0021616297 0.0015584446 -0.0021943068 -0.001087487 0.0007590548 -0.00062722433 0.0016576408 0.001160791 0.0022818889 0.000687143 -0.0008491522 0.0018024133 0.0022302996 -0.0010742146 0.0014368945 0.00042259195 -0.0022035758 -0.00067679846 -0.00021795761 0.0017527699 -0.00079592917 0.0020703431 0.0014694317 0.0004988091 0.00075265986
'img', -0.000474497 -0.0019121334 0.0007082651 0.0023097412 0.0017026069 -0.001636209 6.6092e-05 0.00047664638 -0.0019047823 0.00013604222 0.0010726963 0.0017532198 0.00018690727 -0.0022366103 3.068919e-05 -0.0020167562 0.000859901 -0.0013920715 0.0021267086 0.00040328823 0.0010904454 0.0010725216 0.00029610054 0.0017188378 -0.0011400817 0.0004311696 -0.002077938 0.00065624854 0.0023575455 -0.0019324152 -0.00045136284 0.0021028137 -0.0006271816 -0.0019310395 -0.00048439982 0.0013005828 -0.0017725398 0.001997115 -0.002033059 0.0011279401 0.0018550158 0.0015338595 -0.0006783239 -0.0006902476 -0.0011646821 2.1032889e-05 -0.0017115212 0.0006997236 -0.0014198894 1.8117089e-05 -0.000834185 -7.674863e-06 -0.0008607719 0.0008422463 -0.00064565934 -0.0018962495 -0.002232224 -0.0019539602 -0.0013034538 0.0019624997 -0.002280406 -0.000888756 0.0023770484 4.3934662e-05 0.0004623371 -0.0019644727 -0.0015419957 -0.00096032245 0.0011826889 0.0019666378 0.0016629536 0.0013728314 0.0007216931 0.002486683 0.00081755593 -0.0010419139 0.0016204108 0.00065051374 0.0008590204 -0.0006337104 2.2989354e-05 -0.0024462224 -0.0022466432 -0.0008535034 -0.0018867194 -0.00093226496 -0.0016422448 0.002167191 -0.00046300696 -0.00023602165 0.0009722539 -0.00013632291 0.00047975982 0.00034836069 4.2191547e-07 0.0012093523 -0.0007539736 -0.0018643532 0.00013471278 0.001815146 -0.00042553546 -0.00077823474 0.002208158 0.002359271 -0.002464467 0.0020142659 0.002170292 0.0023425587 0.00025713732 0.001091138 -0.0020132915 0.0023789378 0.0020955103 -5.5152577e-05 0.0012067009 0.00036245084 -0.0011427309 -0.00082064455 0.002254296 0.0012738527 0.00046927403 -0.0013272212 0.0016784465 0.0014628688 -0.0011793341 -0.0015046833 0.0003581212 -0.00035087919 -0.0022429654 0.0017245782 -0.0024013463 0.0022950822 -0.0011780002 0.001621768 0.0024676714 0.0009454237 -0.002474047 -0.0024925761 0.0020751278 0.0005963128 0.00018117562 -0.0007079342 0.0014870323 0.00062256906 0.0013107876 0.0005792235 -0.002281239 0.002377465 -0.00058237946 -0.0004707156 0.0010656241 0.0015569116 -0.0018891332 -0.0018644477 -0.002102961 -0.0007127058 0.00090751547 -0.0016509219 0.00082948303 -0.0022669206 0.0013515806 -0.0017014883 0.0013510492 -0.00074395863 -0.0024353466 -0.001676864 0.0017440808 0.00037232324 -0.0018945355 -0.002040123 0.001404682 -0.0017388834 0.001877288 0.0005791305 -0.00084972644 0.0013691791 -0.0011846876 0.001649662 0.0015295371 0.0023138153 0.00059800973 -0.0014102758 -0.001774727 -0.0023763843 -0.0018643216 -0.0013923778 -0.00016404015 0.0008254882 0.0009227451 0.0007221231 0.0012481768 -0.0018648715 0.0010718859 0.0020808198 5.4812244e-05 0.002485395 -0.0021205607 -0.00087543257 0.0016987649 -0.001843192 -0.0012350245 -0.0013472013 -0.0019098807 -0.000945188 -0.00082449807 -0.00028958078 0.00038678947 -0.00048070023 0.00125213 0.0014424883 -0.0024831786 0.0024992959 0.00040315182 0.00067034224 -0.0005269051 0.0024928947 -0.0008699563 0.0007916369 0.0016593168 0.0017515847 -0.0009947192 -0.0021748885 0.0013379735 -0.0005798934 -0.0024682707 -0.002425594 -0.000488319 -0.000199309 3.0003466e-05 0.0023085903 0.000114354276 0.0017424743 0.00070125633 0.00032261558 0.00022587557 0.00094714895 -0.002192273 -0.0012432901 0.0014601302 0.0024307414 0.0016493087 0.0010637572 -0.0024141988 0.0005157055 0.0011603278 0.0020485732 0.0013155302 0.0003999084 -0.0012351932 -1.540377e-05 -0.0017891851 -0.0010481819 -0.0012142725 -0.0010026997 0.0016317209 0.002007851 -0.0023522777 0.0004828874 -0.0004085567 0.00043644448 -0.0010861797 0.0019192518 -0.00072482286 5.9840953e-05 -0.0011238595 0.0012361222 0.0013647045 -0.0024235705 -0.0006542085 9.928356e-05 0.0020974649 0.0022947257 -0.0019860857 -0.00037264638 0.00063645747 0.00067596236 -0.0007863878 -0.0020134028 0.0005705094 0.00042749892 0.0011382889 0.0023915388 0.0020578012 -0.0014904768 -0.0007793533 0.0006602969 -0.0016437928 0.0015510567 0.00015675285 0.00034465062 0.002367046 -0.0019124043 -0.0014276034 -0.0015978124 0.0023893348 0.0013669222 -0.0006714593 0.0024412614 0.002160853 -0.0011122313 -0.00071631407 -0.0002492786 -3.7842656e-05 0.00036699852 9.596492e-05 -0.0012981916 -0.0019066139 0.0011156198 -0.0008070729 0.0009885527 0.0024486624 -0.0009598878 0.0003186722 0.00076185033 0.00014776921 0.0016483418 -0.0016061277 0.0011125575 0.0010021264 -0.0022263036 -0.00010215397 0.00079001405 -0.0010827952 0.0015066904 -0.0013181084 0.0024405632 -0.00036749488 -0.00094640674 0.0024499213 -0.002409622 0.0020526855 -0.0023006308 0.0015811506 0.0019594922 -0.0016542285 8.954069e-05 0.0014055102 -0.0013318816 0.00048036693 0.0020983536 -0.00040848204 0.0014893377 0.0009838388 -0.0002795585 0.0017639173 0.0014336513 -0.0017005962 -0.00076971547 -0.0012223151 0.0008505361 8.881401e-05 0.0012549016 -0.0012106447 0.001981384 0.0020445592 -0.000104470084 -7.170338e-06 -0.0019538787 -0.0017172885 0.00086019 -0.000942986 0.0015658691 -0.00039704127 -0.00014347662 0.0007838787 -0.00019328934 0.00042113443 -0.0024747844 0.002206807 0.0018925864 -0.0023255565 0.0001252146 0.0019021117 0.0023405494 -0.0023613279 -0.0005413748 0.001161057 -0.00013864052 0.0016574343 -0.0021232085 5.2736148e-05 0.0025014498 0.002501986 0.0019847122 -0.0012692369 -0.0001180566 -0.0016078855 0.0019402701 -0.00035649916 -0.00043562066 -0.0014657202 -0.002185343 -0.00024963816 -0.0015009933 0.0009830216 -0.0003228493 -0.00067926873 0.0014235255 -0.0012087139 0.0020159064
'瘋', -0.00058258313 0.0016138168 -0.0016399279 1.7925902e-05 -5.44058e-05 2.5578778e-05 -0.0013640948 0.0019118452 0.00029450035 0.0016485851 -0.0016214529 0.0024259936 -0.0005818832 -0.0020583482 -0.0023832084 -0.0019270947 0.00096277276 -0.0016500554 0.002419396 2.7493194e-05 -0.0018428566 -0.0008089935 0.0012647213 -0.00031506232 0.0009887143 -0.00021559325 -0.0018695088 -0.00089109776 -0.0011369017 0.00029515455 -0.0016605741 0.00070557016 -0.0017162397 -0.0018109044 0.00023595177 -4.8550377e-05 0.0018544499 0.0011202361 0.0014549219 -0.00063909346 0.0010185621 -0.0015670643 -0.0022152753 -0.0014508676 -0.00051161106 0.001539047 -0.0016997431 0.0018750418 0.00022072947 -0.0007109586 -0.00013879106 0.00010358243 -0.0016918295 -0.001490594 0.0012491044 -0.000563168 0.0013333503 -0.0013485485 -0.00062730245 0.00011630671 0.00015625365 -0.0020544883 0.0008544191 0.0014884954 0.0007792902 0.00044081078 0.0007776938 0.0019803485 -0.0017540881 -0.0015288849 -0.002060294 0.0023754886 0.00079517043 0.0022086722 -0.002109428 0.0020845146 0.00035833332 -0.00012250378 0.0003465624 0.0016531311 -0.0022921157 0.00027020305 0.0020302408 -0.0007592649 0.0024482536 -0.0016952478 0.0023783306 0.0009900746 -0.0012393754 0.0004938429 0.0010354416 -0.00044484483 -0.0014736878 0.0016942276 0.0021630602 -0.002036552 0.0006749311 0.00067419297 0.002165488 -0.0008341347 0.0011693245 0.0013535218 -0.00043393695 -0.0024079194 -0.0019127519 0.002333567 -0.0015090987 0.0009760222 -0.0012522076 0.0018142121 -0.0017532321 0.002464061 -0.0018667774 0.0019335926 0.0012560909 0.0003985412 0.0009800983 0.0011646776 0.0019370958 -6.987704e-05 0.0017147192 0.0019850836 0.0023062278 -0.0016455597 0.0020131522 -0.0012651097 0.0010832484 -0.001185191 0.0017202068 -0.002054384 0.0013494059 0.0022012717 0.0022112175 0.0008056379 0.0019613812 0.00018816443 -0.002490025 -0.000339309 -0.0024878564 -0.00030637273 -0.0005336777 0.0002629508 -0.00048822514 0.0015513155 0.0012012452 0.0011865351 -0.0017701078 -0.0007476006 0.001295995 0.00091893337 -0.0017144638 0.0020848487 -0.002041325 0.0019869194 -0.0021051308 0.00083857594 0.0021680798 -0.0022555112 -0.002145114 0.0015042485 -0.001891069 -0.00034362503 0.0016552496 0.00033015927 -0.0010197179 -0.00030954796 0.001327218 0.0012831748 0.0008269454 0.00025494638 0.0002823056 0.0016548047 0.001279104 0.0013415064 -0.00089687307 0.0019054359 0.0020901847 0.00085078576 -0.0004060023 -0.002365087 0.0003544044 -0.0012680133 0.00062218774 0.0013535363 -0.000991336 -0.001239046 0.0004591122 0.0019270052 -0.0005956349 0.000543154 -0.0010587547 0.0012014745 -0.0016742898 -0.0022392108 0.0018318777 -0.0016150265 -0.0016036193 -0.0012323165 -0.0009497916 0.0021957753 -0.0010847702 -0.00044120834 0.002469851 0.0015120115 -0.0018667029 0.0019616652 0.00013360292 0.0022370983 -0.0022200525 -0.0014996105 0.00077945576 -0.0010617133 -0.0009897244 -0.0011580081 -0.001656579 -3.1270567e-05 -0.0022421647 -0.001731698 7.998467e-05 -0.00082941854 0.0023067372 0.0013705578 -0.0019337661 -0.0017687497 -0.0009048889 0.0018548927 -0.00040720726 0.00014063112 4.2339892e-05 -0.0010231619 0.0006572055 -0.0017821857 -0.0001248044 -0.0008827695 -0.0016667607 -0.00039993582 -0.00026664362 -0.0017332269 0.0004701373 0.001574413 0.001154948 -0.0021853766 -0.00054967636 -0.0008424612 -0.0009307006 0.001475335 -0.0009898233 -0.000370814 0.0008139777 -0.00042298101 0.00022192256 -0.0009145908 -0.0023288857 0.0002703488 0.0013171369 0.0024155523 0.0016233805 -0.002071462 0.0013837058 0.0008923205 0.0023645798 -0.0018920678 0.00046569473 -2.5651427e-05 -0.0024380255 0.000440408 -0.0015482045 0.0019294656 2.636824e-05 -0.0017388681 -0.0016522422 0.0023318965 -0.0021974335 0.00064397225 -0.0012318144 -0.0021301527 -0.0024519418 0.00075167883 -9.676021e-05 0.0005462284 -0.0015088085 0.0023087785 0.0016550535 0.0013791721 -0.001576685 0.0018665451 9.025094e-06 0.0022970133 0.0024386637 0.0006234957 -0.00029527894 0.0018345634 -0.00017184427 0.0001779164 0.0012892269 -0.0004471826 -0.0012470587 -0.0010872175 -0.0005580184 -0.0013766075 0.000310892 0.001404424 0.0009812682 -0.0012357614 0.00072993943 -0.001497378 0.0014805559 0.0018182185 -0.0016050575 2.7750304e-05 -0.0024752317 -0.0015285732 -0.0023950883 -0.00047254766 0.0018180982 -0.0008677317 -0.0016266272 -0.0018773407 -6.303439e-05 0.0020480878 0.00015417121 0.0009827609 -0.0005580655 5.0317117e-06 0.0010290629 0.00010443084 -0.0021306914 -0.002299668 0.00055531075 -0.00042139017 -0.0012321293 -0.00058189704 0.0016835496 0.00069465593 0.00068228185 0.0021891666 -0.0007450957 0.0017248761 0.0017654485 -0.00094466173 0.0019825522 0.0020951957 0.0019529818 -0.0010912443 0.00229466 0.00064234925 -0.0009393672 0.0020868694 -0.0012160145 -3.815373e-05 -0.0021743504 -0.0024990737 -0.001782747 -0.0021534127 0.0015804492 -0.00054413534 -0.0021038612 -0.00087863626 -0.0023830147 -0.0019290482 0.00064438616 0.0017660646 -0.002313167 0.0013583582 0.0022549743 0.0022835378 -0.0009326696 0.0021887966 0.00047169495 0.0009790492 0.001393693 0.0022576295 -0.00043451824 -0.00017260385 0.00027532305 -0.0009838974 -0.00082817813 -0.0013402672 -2.5625286e-05 0.00015020644 0.0021822888 0.002051709 -0.0006605016 0.00083763956 -0.0007926155 -0.0020433962 0.002366276 -0.002379161 0.0015871887 0.0011579493 0.0016297747 0.0016738041 -0.0011467828 -0.00206243 0.0011060913 -0.0006499993 -0.00077491446 0.0014628001 0.0014269513 -0.0021352095
'spx', 0.0022227545 0.0003002116 0.0021728443 -0.002211777 0.0012830405 -0.0024107045 -0.0014889865 -0.0021380596 0.0017661505 -0.0017590364 0.00030652576 0.0020713008 0.00028584007 -0.0017103056 0.0023822836 0.0019877236 -0.002166628 0.0018838888 -0.0008575769 -0.002288968 -0.0016234316 -0.0015733634 -0.0001242043 0.0019338086 0.0014800074 0.0005102085 0.000940021 -4.3713822e-05 0.0014606123 0.0009680684 -0.0013611038 -0.0010703065 0.002288425 0.0021119257 0.0020339885 -0.0016032032 -0.0019690918 -0.0010601731 0.0012209278 -0.0019019656 0.0022085689 0.002378781 0.0017888212 0.00090063136 -0.0013522911 -0.00093986717 0.00040954934 0.0016241694 0.002349697 -0.0015343906 0.0013686436 -0.0019754486 -0.0017820472 -0.00067639956 0.0016806907 -0.0023789352 -0.0025099332 0.0016438721 0.00020063759 0.0011313746 0.0009394407 -0.0019815639 0.0006308375 0.002083538 0.0011133696 -0.0018244609 -0.0010773469 0.0006520821 0.0010003215 0.00054902287 0.0018327215 -0.0010761757 0.00025179205 -0.0023463964 0.0005319384 0.0017849853 -0.0018170589 -0.00071291084 -0.0017651485 0.00058294134 0.0009940591 0.0012687611 0.0016726688 0.0016479028 0.0016764634 -0.002089183 -0.0013839995 -0.002480507 -0.00080983754 -0.0016409351 0.00234892 0.0020062746 -0.0009515448 0.0005551989 -0.0017138763 0.0013778476 -0.0010011359 0.00066889887 -0.0013223237 -0.00219883 -0.0024765811 -0.0019504824 0.00034748472 -0.0004769383 -0.0023458465 0.0021581862 -0.0014890829 -1.8961971e-05 -0.0010657927 2.43375e-05 0.0015174287 -0.0021119225 -0.001280729 -0.0017153309 -0.0012809228 -0.0023015842 -0.001117502 -0.0007317561 0.00013472159 0.0010328839 -0.0022835121 0.0010532581 -0.0018656377 0.0008930834 0.0017821671 -0.0007843209 0.0017592778 -0.0022951085 -0.0017645996 0.0018384124 0.00021284175 0.001591114 -0.0015005704 0.0017437302 -0.00036302826 0.0011546711 0.0011982587 -0.00032160664 0.0011675131 -0.001833444 0.00012726542 -0.00204683 -0.0021954586 -0.00069968065 5.7891506e-05 -0.00020509267 0.0023251323 -0.0007947552 0.0016797164 -0.002214357 -0.00083646097 -0.0019372407 0.00046274514 -0.00081458606 0.0004930228 -0.00031007326 0.00028347934 0.0016372441 -0.002411176 0.0003707791 0.0023515725 -0.00095985836 -0.00109533 -0.0018177767 0.002241702 0.0023264044 0.0019588352 0.0023922483 0.0023383845 -0.0023066616 0.0011847989 0.001998038 -0.0018834563 0.0014632819 0.00076457317 0.0009986104 0.0007488758 0.0016344412 0.0021974323 -0.00027254035 -0.0011133208 -0.0022240973 -0.00011904821 0.0016492732 -0.0019591434 0.00058302155 -0.001329934 -0.0015262289 -0.0020222813 0.0015232047 0.002422204 -0.0015688711 0.00018723296 -0.0015947571 0.0003164586 -0.000474059 -0.0003160358 0.0020540438 -0.001144754 -0.0014430877 0.0024377417 0.0017716007 0.0017180983 0.0020972374 0.0013288826 -5.0563244e-07 0.00049573946 0.00086916104 0.0015838032 0.0016334081 -0.0021093842 0.00054636656 -0.0006040818 -0.0012741855 0.00054790895 -0.001947762 0.00017439498 0.0016195482 0.0015154673 0.0019608415 0.0007969113 0.0022817883 -0.0007548387 0.00077256275 -0.0013564345 -0.0007359881 3.5923793e-05 0.0018353818 0.0006625639 0.0017487882 -0.0011657485 -0.0017208774 -0.0003400251 0.001453534 -0.0011268473 -0.0017004649 -0.00081675797 -0.0010009479 -0.0017180898 0.0011917326 0.0005517028 0.001319615 0.00064596167 0.0009275655 0.0016499767 0.00090359914 0.00048815928 -0.0005105707 -0.00048786734 -0.002109951 0.0023502738 -0.0024730952 -0.0012016885 -0.0012057525 0.0022190937 0.0013035098 6.328223e-05 -6.289535e-05 0.0014162047 -0.0004290282 0.002466349 0.001287756 0.00197354 0.0004018852 -0.0010974684 -0.0001570719 0.0016833151 -0.0005095631 0.0023443138 0.0021048938 -0.0020682877 0.0022881215 -0.0012755775 0.0017865546 -0.0016017853 0.000378488 3.551803e-05 0.0009556432 0.0022928517 0.00016274322 -0.00054274366 -0.0014947386 0.0013637592 -0.0022510993 0.00043247628 -0.00038389812 -0.0011421307 -0.0013257063 0.00042617138 -0.0015723489 0.0014889102 -0.0019650725 -0.0019804558 0.001536317 0.0019434645 0.0007858789 0.002216699 0.0024500352 0.0015825644 -0.0019552016 0.0010360993 -0.0024845852 -0.0005973574 -0.0004200139 -0.0007603408 -0.0011029419 0.0015507553 0.0017683124 -0.0001712639 0.0012962319 -0.0020576017 0.0010564008 -0.0014114841 0.0022120539 -0.0012988013 0.0020812186 0.0002157211 0.0012010423 0.00036142292 -0.0019543248 0.0014312557 -0.0022631155 -0.0010946512 0.0021971199 -0.0019065421 -0.0017402956 0.0017386834 -0.0011289202 -0.00068166293 0.00071878755 6.767717e-05 0.0013410513 -0.0015875141 0.0018401454 0.0018220794 -0.0009875594 0.0018738915 0.00040623857 0.0013370106 -0.0016978345 -0.0015453633 -0.00090708985 -0.0021780857 -0.00020566072 -0.0010032182 0.00088573975 0.0014326747 -0.0009686565 -0.0014549774 0.0011804175 0.00061712775 0.0022017416 0.0019030775 0.00040457875 -0.0014409691 -0.0011126025 0.0004915004 0.0019082044 -0.0016378965 -0.001428792 0.001422629 -0.0021544825 0.0017703583 -0.002191005 0.0019176635 -0.001429424 -0.0010719768 0.002112907 -0.0017160042 -0.0016281597 -0.0020550154 0.0009974054 0.0020251847 -0.00051196665 0.0021849829 -0.0019610801 -0.0001582208 -0.001664958 -0.001181171 0.0007201756 -0.00018504485 -0.00097188144 -0.002473861 -6.748675e-05 0.0007427128 0.0023905965 0.00013715196 -0.0010634785 -0.0012596594 0.002044425 -0.0020185367 0.0012911683 -0.0011150158 -0.00216054 0.002279127 0.0014793413 0.0016299516 7.4025826e-05 0.0023789338 -0.0003848387
'宏達電', 0.0020282879 0.0022456201 8.135102e-05 0.0014231765 0.0012296872 -0.001357123 0.000839606 -0.00069183804 0.0007845403 0.00032478612 -0.00054247875 -0.0010221386 0.0012565718 -0.002104876 0.00010688839 -0.0006924176 -0.0004099475 -0.0021975057 0.0024733213 -0.0019109285 -0.0021699802 -0.001631652 0.0011006636 0.00064089074 0.0023893716 -0.0016860727 0.002168737 -0.0024474002 -0.00039231963 0.0016380631 -0.00080905325 -0.0014492883 -0.00011650449 -0.00083856407 -0.0017149958 0.0022931676 -2.4299748e-05 -0.00106215 -0.0007404176 0.00065075455 0.0011691428 0.0009594398 -0.0023796516 0.0016345833 -0.0021795142 -0.00016141763 2.7957396e-05 0.0018919808 -0.0015775268 -0.00024796344 -2.9659534e-05 -0.0017462731 -0.002374314 0.0010643256 0.0024071794 -0.0003495984 0.00089468976 0.0015478135 -0.0023639677 -0.0022504507 -0.0016999304 0.0009726359 -0.00052866 0.0020840643 -0.0024181292 0.00049443165 0.00012882065 -0.0005897772 0.00226232 -0.00093384617 -0.0018132903 -0.0006100387 -0.0011779505 0.0005410622 0.0003731257 -0.0023192433 -0.0014163575 0.0005119851 -0.00015315738 -0.0018656375 -0.0008071286 0.00033011095 0.0017790452 -0.00036906288 -0.0012865897 0.00020540346 0.0004555311 -0.00028193276 0.00034499116 0.0022347816 0.0014575667 -0.0022433305 -0.0017301117 -0.0020358984 0.0002573089 0.0016318095 -0.0008394639 0.001645841 -0.0005376983 0.00065484975 0.0021440093 0.0018042619 0.0010010663 0.0006139912 0.0015919524 -0.00021066544 -0.0018884644 -0.0021594313 0.0022614456 0.0011134344 0.00052045437 -0.00023482343 -7.219666e-05 0.0017158862 -0.0013265966 0.0022708673 -0.00012875623 -0.0009126831 -0.0016565323 0.00090797484 0.001895543 0.0003704331 -0.00031731444 -0.0017275499 -0.0020832303 0.002066349 -0.0017648605 -0.0007135396 9.176769e-05 0.00022268557 0.0016915994 0.001771668 -0.00087481056 -0.00042404505 0.001624683 -0.00076367345 -0.0014925892 -0.0024558182 -0.001143725 -0.00053166907 0.0005076335 0.000875841 -8.4882806e-05 -0.002453551 -0.0020033559 -0.002192624 -0.0010455453 0.0025007753 -0.00062863244 -0.0012435133 0.0004342104 -0.0022402373 -0.0014761244 -5.242718e-05 0.0004115104 -0.00039697258 0.00037079823 -0.0024534578 -0.0010217773 0.0012418419 0.0016497715 0.0016912881 4.5147422e-05 0.0016356845 -0.000513379 -0.0002851304 -0.0009924998 -0.00015446644 0.0007995425 -0.00072074827 -0.00055509317 0.002177675 -0.002355231 -0.0022032806 0.0024659692 0.00031223687 0.0024982966 0.0020513546 -0.0005078298 0.0019812332 0.0024014625 -0.0019820388 -3.194883e-05 0.00050185714 0.0010554164 0.00049632095 0.0004732326 -0.0023327405 0.0001319257 0.00029303186 -0.0003775061 0.002079202 0.0013403292 -0.00080150017 0.0008139717 0.00080563687 -0.001876722 0.0011625134 0.0023333596 0.00066481216 -1.0157095e-05 0.00017688787 0.002027922 0.0017267455 0.002224938 0.0010080945 -0.0014159094 0.0014448407 0.0018917206 -0.0005403021 -0.0005477027 -0.0012021211 0.00027729114 0.0013922212 -0.0009001193 0.0011031991 -0.0001728992 -0.00037746463 -0.002394833 0.0016485635 0.00015945085 -0.0018956697 0.0017655165 -0.002399614 0.0018109508 0.0023876685 -0.0014512072 -0.0005936364 0.0007083828 0.0012886521 0.0010609096 0.0011055437 0.0013494254 0.00056584564 -0.00018358167 -0.0013341655 -0.0017138098 0.0019062962 -9.722155e-07 -0.00187599 0.0014431291 0.0017590285 -0.00092928956 0.0011566773 0.0011089242 -0.0008841873 0.00019103434 8.601287e-05 0.0015769874 -0.0014249271 -0.0014718896 0.0010682171 0.000970768 0.00047265092 0.00222021 0.0004854272 0.0020230014 -0.00017143869 0.0012664086 -0.00018843976 0.001026383 -0.002183657 -0.0017878347 0.00051895186 0.0012985435 -0.0020012625 -0.00014610459 0.0014364396 -0.0003099095 -0.0020578413 -0.0012666113 9.4201634e-05 -0.0007866922 -0.0022067393 0.0010505454 0.0011900438 0.00092933874 0.0023337328 0.0023869218 0.0011238955 0.0007951652 -0.00036705536 -0.00027721285 -0.0010107002 -0.0006948997 -0.0015866528 -0.0019858528 1.4434987e-06 -0.0021844648 -0.0014858568 -2.2955634e-05 0.0016843921 0.00062107574 0.0010858934 0.0014668152 -0.0010903908 0.002382795 0.001123286 0.000588734 0.0005549514 -0.0002434492 0.0018074034 -0.001522654 -0.0018919037 -0.0020978078 -0.0010943597 0.0019974466 -0.002351928 0.0013854472 0.0011972261 0.0004014569 2.803547e-05 -0.0013839053 -0.00047157 -0.002133251 0.00087990897 -0.0011421035 -0.0019810155 0.0009934203 0.00198862 -0.00057673757 0.002354976 0.0023380974 0.0021717825 0.00037582795 0.002042091 -0.0024478226 0.0022372932 0.0005061866 -0.00092314987 -0.0006399097 0.00017051323 -0.0002979253 0.0007798126 0.00054414396 -0.00052096206 -0.00010211996 -0.0017374745 -0.00021202811 -0.0012912188 0.00075419684 0.001002468 -0.0020727103 -0.0011791884 7.495496e-05 -0.0014380435 -0.002220055 -0.0009609229 0.00088849873 0.0008666132 -0.0010029895 0.0024873784 -0.0013045896 0.0014557083 0.0011024569 0.0012324568 0.002097862 0.002177642 -0.0012527274 0.00045111583 -0.0023114893 -0.0005729653 -0.00020974119 -0.0006628905 -0.00020711322 -0.0024546052 0.0014503945 0.0014161179 0.0009908298 -0.0014185242 -0.00028378647 -2.7226057e-05 -0.0008893947 -0.0023504088 -0.0021670694 0.001614431 0.00022775972 -0.00097345206 0.0022119503 -0.00028771788 0.00090740167 0.0011099349 -0.0015175494 0.002420689 -0.0022805196 -0.0013694617 0.00045409583 0.0022976592 0.0017033148 -0.0013090546 0.002351308 -0.00040604974 0.0021422617 -0.0003156848 0.001468805 -0.0006932147 0.0013718934 -0.00085200474 0.0013222912 -0.0007222748
